-0.27252961563289502,0.17311088591322413,-0.048191567779101836,0.087690933516780242,-0.18228746819741889,0.18613933967745261,0.12074500727653853,-0.094924547422420361,-0.00015246718221097704,-0.05582002363580113,0.053976355210550962,0.040456025364819119,-0.287749955875996,0.11101638631534431,-0.28708917647900095,-0.079143761797283663,-0.2639467984178519,-0.047342340275963186,0.075070269096776221,0.0021336186485412609,-0.29552050415156467,-0.24283104367836186,-0.14311882526998171,-0.035682585878910898,0.095750570029379298,0.073608163486066247,-0.25616071936340662,0.14354985632204711,-0.053209995692302087,0.12255465011578673,0.036385771540473635,0.16788725314205466,0.016357735329541771,0.10627233115558421,0.21333779612769968,0.00012271297927102774,0.21010781540859891,0.049092456586503734,-0.094778156999484123,0.15189897825289103,-0.042168503192860939,-0.18483429396862266,0.044605122018341679,0.077625542766923961,-0.042228869077743127,-0.11634184332772811,0.02137655487773546,0.16065468606532915,0.052838517657411203,-0.24951039694350355,0.1472685278763563,0.21453489757688102,-0.20570370516567726,-0.12592207413290632,0.19504740374221066,-0.22335962214815805,0.019820552346400209,-0.23411338339170126,-0.037967001346865974,-0.12500817393092736,-0.10498127287922231,0.0025398869399439537,-0.070730610555998774,0.11810307755049698,0.084886800534165696,-0.056458589745481652,0.16325646186407,0.058290738135175518,-0.19185493331735945,-0.13737454022654499,0.13702552316202521,0.12096930709865648,0.17172095539802662,-0.28070241142968827,0.072421060392587278,0.11814954816477206,-0.26313955305789605,-0.16289381174750869,0.14732253669366729,0.033023633026471905,0.18244809155756325,0.16218449810116467,-0.029559755036974524,-0.10419069440649703,-0.12635899979562173,-0.065721568581001741,-0.036941894184734592,-0.25260540451019187,0.010899057245217786,0.21359864329467826,-0.15563730500970765,0.13762473988382867,-0.10553626790187894,-0.18994458653183227,0.041564493408988934,-0.098337998556366712,-0.19804121031016819,-0.12171457086990806,0.12281636706083282,-0.048054084479414526,0.094979435856445513,-0.25260474770903324,-0.29510028442561437,-0.17335512064411221,-0.20912445455528933,0.061432513009276574,-0.25114151373057075,0.21414359286514967,0.22062810851118103,-0.044853152457765777,-0.24810030812477935,-0.21152174150152142,0.083903364522975796,-0.078981459176098931,0.084300452101542064,-0.090857276888719987,0.21081459611557976,-0.0085476894203451084,-0.025041984070064371,-0.17524686194822212,-0.2596351945907876,-0.12247833599204119,0.011340725021744756,-0.13588787947508757,-0.014470961518295597,-0.26051766017507499,0.18894996233895117,-0.04381425609306721,-0.12562107060738592,-0.20254733573381378,-0.26536183760836346,0.17808903834559014,-0.10766381034491086,-0.30320582915890226,-0.057106212048083804,0.14498789658771538,0.0015744580356164227,-0.20238513571152161,-0.18665545316633472,-0.23973199689612396,-0.28872878659916135,-0.20231971921587147,-0.20249436638188476,0.18859626723124981,-0.25469450792632664,0.042929317302076365,0.13017984766250235,-0.10653074626771723,0.039726090214778118,-0.1438253082601075,0.17595641399110157,0.22389187083193013,0.21823721370465818,0.043237775700309282,0.18036776485426437,-0.2164437331625515,0.21011343674529004,0.17610092008398437,-0.19822330078765804,-0.10340438103164198,-0.098528802584154793,-0.29151951106722068,-0.052273300045417768,-0.30939239254133938,-0.19621734080691386,0.075799032873802574,-0.09730849473169341,-0.0034362069400793922,-0.20803681618915712,0.10874150996188767,0.12596910030123765,-0.032248983921632536,-0.039170909457253787,0.14454487328141852,0.02533617193060677,-0.29408114259396828,-0.18717836417197564,-0.15149417079495173,-0.054113287359237497,-0.26363564342427714,-0.132057601288529,0.063895124199407863,0.16530939036986114,-0.022896980460668803,0.11697338821725382,0.098352672361300103,0.10927579735501292,0.027435315559050402,-0.069352252460905164,-0.25278429453220314,-0.055695739359485005,-0.2776811491124429,-0.11395576036294679,-0.027394036053167585,0.14343728529969146,0.0020013057428526267,-0.13885168162484401,0.033227072604035846,0.049681860295131657,-0.080842766814695072,0.010252067427282761,0.18182487721921159,-0.28945199686570089,-0.19811774406766561,-0.2318820980011698,-0.040353309184760933,-0.072440975880258815,-0.18601616025251519,-0.027289027966836885,-0.21531063470381231,-0.20145435078047569,0.0047775262850360675,-0.13667084297444151,0.032041957794383083,0.13720999206532664,-0.18712060510103751,0.12398389566719227,0.13113849747082612,-0.096057292832688893,-0.055580058454886352,0.13870185654460016,0.0044531488372892636,-0.19472802874379813,0.20573854561734592,-0.1139255020615717,-0.040302746512389027,0.20081515697105065,-0.030492133530297137,-0.24247921861432734,0.051236588711420249,0.14070818974426164,-0.27866206699171253,-0.00016189846303062773,0.1813097058879701,-0.084316088644202661,0.15121509780883194,0.17103564685528949,0.19646787262898471,-0.27603924336667618,0.052809165784894717,-0.13704796309821496,0.030407712086216392,-0.024739216400836622,0.18966913004267147,-0.25075589610940935,-0.035035143353628971,0.17761341374784681,0.11870831972300261,0.18957721495568203,0.21976439881626256,0.20904373501742982,-0.30663597522183916,-0.25618418359495615,0.21422195150865664,0.12568161675865863,0.16794810742817226,-0.16055728465552874,0.19745891183204145,-0.26354363695930033,-0.10288316674432212,0.084135122419150374,-0.25364446411238378,-0.11944826017214087,-0.27300450872276316,-0.015373293814587527,-0.17939421831167243,0.10346872767328238,-0.19870845801730905,-0.29337541732575118,0.054306983923585864,0.034296289265966888,-0.17296807360832828,0.1323267386919289,-0.2904346463277161,0.075369708220849582,-0.087182660718505708,0.038209134286286001,0.12384840050515067,-0.051035843720797634,-0.11436621413584971,0.16274084823002827,0.15128512600814739,-0.15415922535745069,0.2133084110480368,-0.24506523558057874,-0.28262157438063112,-0.026620851388593894,-0.010881649043725657,0.036793760733454223,0.21399072394320556,0.054057288743249672,-0.27728501669724831,0.18822762085866235,0.17771488934962493,-0.25627786816730241,0.089826587108506037,0.21346483922171286,0.17127383051194067,-0.20507253836635014,0.075100851427808549,-0.14104571246254025,-0.14488072321192927,-0.20608612955611605,-0.248438647986198,-0.21899019761663244,0.044843924396697481,0.17896620470483063,-0.060756639196362802,0.17357876342221704,0.17213818660529576,0.18873407311862986,0.049470284533805073,-0.22145751756506987,-0.11985573282324312,-0.20750298132085745,-0.20206858138293049,0.18958019660314332,-0.1406456225544869,-0.0081172618103525496,0.13674542463282965,-0.03839857113594107,-0.18663695343041695,0.16625594969349397,-0.25753312567024722,-0.16025715495534895,-0.18440823228087691,0.053835392921853228,0.023510196561847097,0.18788584276920708,0.084066807152953019,0.048700989981097641,-0.25340572515867915,-0.18558200880135586,-0.28984403069495795,-0.16986914939842052,0.060433110748089866,0.12059264633978135,0.14199419897622789,0.099614555764362248,0.1481707192399834,-0.097626972198452233,-0.075422787649824422,0.18150392613789679,-0.10736964884436681,-0.17846127919878546,-0.26381805951336534,-0.16285266459679049,0.12973709010087703,0.013797415835507651,-0.13408067747752483,0.046343700359614153,-0.14325682801340253,0.025008027390778263,-0.071803052289607525,0.032315724835534562,0.16941610608629493,0.094198971230733147,-0.20551868493052552,-0.2358275861997822,-0.057041180678635325,-0.23334233941949095,0.18926382877425749,-0.13563245745715491,-0.27335679128428203,0.13205207391288845,0.11381531107961525,-0.21149514565647648,0.10915099518544974,0.11186641503437882,-0.13775434649748813,-0.15443982087387495,-0.26256989932720015,-0.20374018248342812,0.089438240245143116,0.028952857099540506,0.21410888277008866,-0.21580281984032698,0.21582085842022872,-0.2669491754299354,-0.26499910016946743,0.049475580649244448,-0.026594218884328523,-0.059443170116390422,-0.011161395032934732,0.024803018821423269,0.18685434557529912,0.070050671095462563,-0.25986282026284763,-0.19398425857929658,0.21842759028740422,0.12513650020671901,-0.15014849538848166,0.076926876646803158,-0.054487213692756657,0.13439083074846539,0.087780250936697293,-0.14039998744737109,-0.0064343196198991242,-0.29178055211131121,-0.014057796159410852,0.0013404700395754263,-0.29771903629603597,0.061336558950066407,-0.11278202017918129,0.10632980451284409,-0.30173753127038311,-0.24119214408726133,0.14200357569641334,-0.1712656023576743,-0.25170716653878655,-0.28865567057917979,-0.057795544050568831,0.015537368557059094,-0.040836311030806538,0.092257962924042994,0.084946984799820907,-0.3014628130288316,0.033447389222550125,-0.11627800569204583,-0.089320089535120648,-0.19666248800739169,-0.094322023779534248,-0.11810942018101425,-0.16223591530473916,-0.14490083131818188,-0.28318107941127796,0.16406633308043719,-0.28233891879764156,0.10480132931726575,-0.22634968064976055,0.056911985180984746,-0.062111382612031828,-0.026683572792494368,-0.22248295586225075,0.0019506805878398944,-0.10828348835908143,0.20086847509016856,0.11456088198245605,-0.13460881081153855,-0.023614717040632036,0.15708663228135081,-0.22091167568215195,-0.039250951557716199,0.11884343678100948,-0.02776900074515827,-0.12542168693930533,0.046092569908093101,-0.085302883049290915,-0.23821533567089681,0.1396315995171015,-0.25325639004007888,-0.16910619805120186,-0.034968558175333481,-0.25066625386285107,-0.21331010933206634,0.062989280126664049,-0.25709060392667382,-0.048542159050174824,-0.089688981835767997,-0.29897884728898044,0.19721658285833266,0.0025882794206165721,0.10858113296762979,-0.071062103846322708,0.050280510463305263,0.0078301120562486743,-0.075731836021410204,-0.11756997996817459,0.060937256530229578,0.11495072981585226,-0.029958961725696051,-0.078259923372639817,-0.25554046327275837,-0.15318118691775318,-0.080981215892450428,-0.2133167584141695,-0.0022816190666727462,-0.16253134470385944,-0.0042637565682924474,-0.014911194606211646,-0.112996121116993,-0.21260462629661372,0.13677601079879106,-0.11071378998078624,-0.023646469795654039,-0.16586546641005107,-0.26825856576972995,-0.26498874074996764,-0.13369078251135755,-0.15990021257392101,-0.13965680369450778,0.13967003269820261,0.051065570308768723,0.17453702879314842,0.056937152431200733,-0.019887613079983255,0.077581892568786517,-0.30135966174389245,-0.064494848721726727,-0.072850388271966771,-0.068517858006943155,-0.23366380715213197,-0.17592560157856749,0.17116354388769089,-0.064670416672363576,0.20195467648705764,-0.16547095340841855,-0.15966618329269647,-0.070771167307829161,0.21906675491417438,0.06693197328978881,-0.12271189602053056,-0.064541086121449737,-0.085134534876274953,-0.0043131151650045657,0.079547300700514814,-0.11267466855344528,-0.070646407073569575,0.18708685579554049,0.16064921629250078,-0.047446140531205154,-0.12125526090362343,-0.035473705731825164,0.040771260098814668,-0.31102074785584893,-0.17337820391446521,-0.10678119196520144,0.099091188179630377,-0.2806318019144961,-0.2865224613306564,-0.13262042231547605,0.015499433449773817,-0.30156110367770911,-0.12666543105581879,-0.041909067778758267,-0.22467458132205262,-0.2988131339571824,-0.28961778853305697,-0.231186395510946,-0.031482057342982976,-0.16732829049526268,-0.22058990782733087,0.040233829821288487,-0.091431780609381952,-0.30416365558307806,-0.0021418756117486584,-0.0073121051783227786,-0.080384124836614321,-0.00075802658250837473,0.08184232256330308,-0.2223104985265936,-0.22055769554759724,-0.13456461981014448,-0.016360368695857736,0.096695212073960118,-0.24004088799086312,0.17350076859024616,-0.076483176657563684,-0.11564462218199249,-0.036266121526157387,0.18366927697408966,0.007249849465029848,0.034479129117278018,-0.12996975136793743,0.091247795664774076,0.069693803455753642,0.04637171996900117,-0.24515385001085579,0.088989765277943,-0.059433283285219685,-0.087265459910105647,-0.17855934814071098,0.2090115411393865,0.21878114928334533,0.0092367881376165493,-0.10682120825344257,0.047599062740715167,0.1235518324992565,0.18711844441519765,-0.20294720252757559,-0.037745316240305256,-0.26364185381591732,-0.027137008987977392,-0.097771600313594609,-0.20890926990961448,0.17466686001335577,0.029218152118995817,-0.022041274327733184,-0.0057551326591715477,-0.19899467453321243,0.054710415369599918,-0.28311379733871184,-0.17589067452518917,-0.20888205533666548,-0.24230922211385814,-0.12649015461778235,-0.24261604840413717,0.19224071199126957,-0.23927896609292237,-0.13035958638088105,0.021798202587388644,0.093120533190002672,-0.0071823621527538663,0.011784981591349929,-0.16689270727774008,0.028273206641065071,-0.2571957257387763,0.20608180523319367,0.087840872495375769,-0.21587142187536701,0.059261915878626843,0.13560527487522533,0.1017895109978374,-0.17688616312194266,-0.092190922028463532,0.15648933101366891,0.12332852837354939,0.16372267621762623,0.13267663790927298,-0.17678332284395065,0.11687652072455686,-0.26854550162113866,0.18933727928882191,-0.26580882117540205,-0.20514965125142676,-0.040040213649850796,-0.20774071165973426,0.074633581087487133,-0.27077034489983004,-0.21915790603456697,0.090561801013385748,0.076030639307847356,-0.11322197564541318,0.16074394876319956,0.17489882021042952,0.016015940087991933,-0.28924660160694399,-0.045446830210157933,0.035576432603579004,-0.067406637800830116,-0.07702451009767311,-0.16634474469764232,0.09331925151044991,-0.29179835168609952,-0.15660840746102378,0.024043343011067163,-0.24252654960080003,0.16297129023327864,0.19545613603654444,0.070365663225431654,-0.26635859799221878,0.012023050228531292,0.11142431389099372,-0.30696260749186682,0.096020924032418714,-0.22862927841185401,-0.18805903329301682,-0.28543949779378824,-0.11823429094032216,0.14461498465534062,0.086729035266021243,0.19940018442954277,-0.027799831472429086,0.12707399338242947,-0.15970517976833676,-0.057470894949619114,0.031041013623238679,0.032395183763309486,-0.30375219247623558,-0.27339840369097568,0.10213730618227575,-0.15960085601632718,-0.15613404973939837,-0.059881012099865912,-0.048962458543471317,-0.14456013520727534,0.09976611022339224,-0.08494822447421535,-0.17312168868991776,-0.0062936496978515544,-0.091430528723058901,0.18247356282494978,0.026143973863059746,-0.15001720634703997,-0.30298601319357366,0.10248926819625891,0.18079942690435136,0.053734656544136207,-0.24252042372032329,-0.22410371435111859,0.1062057690995038,-0.136177981073594,-0.099026288107857505,0.14253041407361222,-0.015849467454868895,0.21336900906103223,-0.23987829754181639,0.087603820717730069,-0.039156316061113187,-0.19071109176457832,0.19299817258134366,-0.19177022787584741,-0.24747764844469999,-0.26989740899443898,0.17314956557273053,-0.086815315307705643,-0.22341310124819813,0.16496865516580667,-0.10128964614204818,-0.19673544471638829,-0.14454404740614302,-0.017290836637280434,0.07854291117759904,-0.30493525056805854,0.15214235050050876,-0.023209282157344094,-0.22401337323952128,0.12447023251271626,0.1990684556394503,0.049992754293187225,0.16296992621460057,-0.29387897262666868,-0.18257825859497426,-0.096764050177904445,0.042462245864653504,0.15580511099924718,0.18959029806202068,0.18887094854561559,-0.075068043305341309,-0.30404611909718188,-0.20613949081194094,0.00081223521337555683,0.1873296030728222,-0.16042726782291175,0.20792384685478962,0.10457838643116651,0.10468189612411027,-0.13449555369696267,-0.2537492326458014,-0.29465825505795024,-0.26287350471117327,-0.15205287582751334,-0.17237917919486564,-0.066906188888623055,0.048687672506930152,-0.020989485104317675,0.17710536441837818,-0.12421332506413919,0.070638931015483214,0.19622468621493894,-0.23957115972036047,-0.28858072433778281,0.049791608631793154,0.1074589807507557,-0.073124475795662738,-0.25132201578462782,-0.051844864989854147,-0.057460478768137979,0.095879158701800388,0.12311643582246126,0.11498464599727976,-0.15452977513259317,-0.08762444534224452,0.10102099011688728,-0.17346816795589676,0.16426737340779304,-0.20955633622083281,-0.13271137849916301,0.038530775319414901,0.06519120925006866,0.1848463127196398,0.076609293945731793,-0.076129482563639633,-0.26327667283239092,-0.10438758308773581,-0.25329645495843744,-0.24835436756022608,-0.057772925996678222,0.14229874946179788,-0.2228581651756493,-0.17900636895833888,-0.1977782342525089,0.14630489834823029,-0.059077740237869013,-0.049117122576732404,0.067985349474463788,-0.081895687730807798,-0.080687913944123293,-0.28516368675808057,0.11206125720733882,-0.29367131680894104,-0.058400469926921841,-0.004219174219142364,-0.073369880859896638,0.1954349561948153,0.077737769402759116,0.083313492669387687,0.20227012717884238,-0.26222956769994538,-0.30600618702864119,-0.26061494333687341,-0.26291647715459709,-0.0031113123626323427,0.093948804774087472,-0.077474816215434478,0.11463728818606282,0.045047398081913423,0.014870861795858066,-0.10100989775919396,0.048450108681377439,0.068437346808215574,-0.30052423520840965,0.17639894720013974,-0.0096909855163042329,-0.088797493870006641,-0.026974330287256692,-0.047405429411208073,-0.27258013558038902,-0.10594914587600572,0.073767916230776095,-0.013693763784047287,0.21588208171436624,-0.3032846520137138,-0.083529842655444275,0.075201470224970146,0.17033027343273674,0.13226139104243284,-0.057323254806922373,-0.25117812818184293,0.11629309178409498,-0.29489148257217901,0.21636755434817484,0.20259331303334197,-0.24089172754912824,-0.16551162987988946,-0.054594449698430449,-0.091250064582212131,0.032030282163415205,-0.094451512838826523,0.033464674366121397,-0.20006456096024158,0.0087681399175019107,0.096136241714422227,0.090843250195957237,0.0057349273838506005,-0.083510282115857828,-0.095723175584820339,-0.022202567259527899,-0.20898328665450258,0.041274179046189137,0.143263204919961,-0.21764613010395806,-0.018372274430794516,-0.12590802539082277,0.13957991035649939,0.17456989217661137,-0.032419307072344,0.20890499463296189,0.10641359431354974,-0.2937057884396147,-0.28134667745072112,0.10455202547425158,0.0085604666950224399,-0.027518253521569863,-0.14392957016354688,0.038738193239556767,0.052894042291896565,0.17082665541278264,-0.049889887039840514,-0.02932399188747108,-0.013767426725630886,0.1706665340718436,-0.1316138846699417,-0.22968178175566489,-0.28744120129241402,0.1709427319853152,0.049686509038126513,-0.16357001005801602,-0.20075750855025745,0.16104325153965118,0.18195960355378757,0.21844730464574533,-0.27880602149652967,0.045164629620270583,0.059921037532282707,-0.10389697128197917,-0.051170319107439098,-0.29163992652157683,-0.10012868580896764,-0.12862492014030666,0.11405914472531437,-0.28556334035350339,-0.28065800054842277,-0.18065052369202575,0.011971320779597415,-0.27628855948386427,0.084335876161111059,-0.0079365669072564062,0.19671545159582574,0.0042029231155119575,0.10098528893583864,-0.047790300930310198,-0.12910623010440647,-0.0079058021136584958,-0.096719982744028751,0.16461488274682051,-0.11484303513252234,-0.20335236987175689,-0.052182572636788035,-0.033025724121152497,-0.012869502299677609,-0.18952565762751022,0.10282247408505815,-0.094594108950580097,0.15511500763494326,0.12314544285473684,-0.29182269887117473,-0.040862630855180077,-0.098854955626679397,0.14719767683502094,-0.21016296986504493,-0.14953521279826909,0.050784831542228646,-0.23593228052302279,-0.15534794915510169,0.21111936645685733,0.020537853746324067,-0.18431045914629141,0.20321511130562064,-0.0059601010909950706,-0.1280228058413366,0.094641290042827841,0.00048924616097939533,-0.024515168408317852,-0.19568546789556163,-0.0055294631554960979,-0.23713944699272099,0.057655067521999073,-0.082576459628786125,-0.30899479915814188,0.092824417509547147,-0.2450644132557461,0.033771498989450345,-0.27225905657559152,0.17342486377641461,-0.16231088938798535,-0.22887482769989309,-0.050717141828712113,-0.047318189214364717,-0.24587031592500624,-0.049053347392723441,0.055078477351825889,-0.026676245526970108,-0.2694000213536511,0.14690352533482293,-0.27916517939506663,-0.057660972707583177,0.0050268736814042259,-0.20185738365346981,-0.0024873257414490296,-0.011037878060032959,-0.064879228555503182,-0.047887500950163864,-0.25751892127475501,-0.28609630537290931,-0.19703062311204519,0.064496691593870975,-0.03292807059476123,-0.10069853373038697,0.12434723672626981,-0.12855344984437198,0.046281921637015604,0.10699332758995682,0.0054694184460857831,0.1647956695840701,-0.051401361646313287,-0.084499653160434604,0.10251510768821642,0.055697325724704851,-0.12243756025225488,-0.049165799977227705,-0.052763459793836419,0.21551753270914153,-0.050964001833334792,0.066959366303223578,-0.16943166928564551,0.13970218480559474,0.17994939048882952,-0.19897049133384881,-0.11713009868025105,0.213090487795042,0.1290455557108843,-0.25414380891597677,-0.19090042751317224,-0.28442869996714171,0.080643291565282188,-0.27839994877647328,0.13023102002873399,0.026312448718915395,0.09640173447347819,-0.19987787050580416,-0.063579131455379814,-0.20125144556464955,0.18800966264168895,0.084451844769313583,-0.0051392019241717204,-0.077003662206968179,-0.25043845142764914,0.20375421261523774,-0.1870548580390021,-0.13488227469817482,-0.065081659964048216,-0.20762122464177618,-0.14699824781639609,-0.049219299933971068,-0.18088025394098553,0.076496253833778574,-0.16283992118704621,0.22203443841516526,-0.012724789900359025,-0.066999156766596957,0.099926883541258296,0.050365605708073545,-0.011023863883813182,0.12462962674780348,0.14700503758979006,-0.056331371489822098,-0.25563127974387612,0.17390038401876642,-0.036177430383747461,-0.1066933642812168,-0.23586141891715531,0.16177103241205698,-0.11249843531783174,-0.29477763270938606,-0.12177491340322963,0.11483659279496071,0.029812401133793149,0.037849731465326171,-0.21306488752415881,0.21156718846475628,-0.27518848802762319,-0.056599475265402988,-0.092222478145064443,-0.29280743891819777,-0.22979770476382738,-0.058646483195919356,0.11648757100932558,0.19056495252415379,-0.06317743513759537,-0.1564805559131581,0.039319837585925894,-0.060610144755683958,-0.28170335180382999,-0.013260974319558808,0.17264331267805866,0.18577778326197011,0.057260488904381436,-0.038071688089160907,-0.25157057295435209,-0.14551862715038907,-0.1371748956680213,0.099796167185039295,-0.25253165844519809,-0.042516748374113664,0.067138444423695612,0.17046366206101235,0.017266654481089345,0.19092302394179314,-0.0079554121319819308,-0.11693802136102094,-0.037912294975775362,-0.28331464770944664,-0.17358079379852351,-0.03540045926276577,0.066122700070861962,0.065149078937321456,-0.1048039271936754,0.0074891167611107002,-0.046785634096233236,-0.19599865537231911,-0.14417454830595144,0.21015077437746585,0.15608307649196548,0.057150869219642263,0.20088603468539912,-0.058128585821053382,0.13698873255608862,0.20414865559344814,0.12468571078336022,-0.010431689801800917,-0.14508196546276592,0.044928743237323092,-0.12668482095427236,-0.10066657852614921,0.13419225302489188,0.15274858738455055,-0.045127372840381964,-0.059336369203932225,-0.24949113005727136,-0.093295266605568639,-0.051291762876329625,-0.282435297777199,-0.25361539090374779,-0.034142360952558612,-0.26367340454975835,0.10945775665317152,-0.11539735968668352,0.18738746175471846,-0.080580630472597378,0.059989880810277008,0.047488604192475192,-0.058686974135356729,0.20203714206013854,-0.046575141710246369,0.15429297785683116,-0.14347679896747156,-0.22011060967632451,-0.084504560083869959,0.081631416412452695,-0.10151416783911292,0.14023571178068853,-0.23636867304729592,0.17941371924728874,-0.0072106189790225317,-0.14051587048789321,-0.098763539795084329,-0.20895499233214873,-0.13166022405470454,-0.26614121044306754,-0.12813915088068603,-0.28087814848228465,-0.16732714132310347,-0.16644522736812895,-0.10207779599079354,-0.083456608814248989,-0.27213745940748779,-0.050465575616257953,0.061642130233699688,-0.12147398373040155,0.026816319033265881,-0.12952919528471465,0.018408437949693712,0.17953828316320666,-0.13079126834506541,0.028255347993556178,0.087557960687254466,0.083721696605835338,0.20693967426253879,-0.0052739739682576359,0.12133120746214733,-0.028649344106961096,-0.08770085060438873,0.18098997651970961,0.13279290033350141,0.21378939612797185,-0.23697112628506439,-0.17357191696375412,0.21486020883966991,-0.18105761642251259,-0.061678405222998244,-0.28252803703292634,-0.16705898798539415,-0.1555075049943157,-0.19584181076038557,-0.18370325519204186,-0.11973884761444446,-0.21771843442818264,0.14136907287285624,0.1342220507004625,-0.17825299162573052,-0.077001905617649136,0.12307456619930238,0.082011912199802126,0.070402730483551432,-0.2953471296566253,0.19177156803723444,0.17799913337559947,0.19132801308814898,-0.17490271595345858,0.0033153949514715454,0.064533766707096804,0.10762850842402076,-0.3031873587992488,0.1652634446630131,0.11560552293955516,-0.18705006272701147,0.004464125937313425,0.13777505360613593,0.10003730323712139,-0.2890627507287854,-0.035755230176610683,0.14914114354952607,0.12524919118811315,0.18537727153748035,-0.11265106290049715,-0.25293257537731473,0.12031787520903475,-0.2178219877254749,0.12045474810798769,-0.15371616264437341,-0.30569125224196575,0.18192139067941104,-0.11125362709108139,0.094354060868736003,0.16613470558695692,-0.035615580117674628,-0.14921056868834309,-0.069422815816620589,-0.22514185210834398,-0.28136861434370741,-0.085638953305968338,0.011060251643812077,0.038682059564846404,0.10195441132470066,0.17400647375585185,0.21085210279304009,-0.14267242500521091,0.15555553462602428,0.097782366548802929,-0.22401009754313092,-0.039049996384708019,0.028130704107429301,-0.0035204064494138753,0.13106225960355686
0.13190125573779893,-0.068391337374483427,0.25106096718299636,-0.07120077151716761,0.18951469540948279,-0.056127296807801083,-0.10110705774919725,-0.028593896955184685,-0.071685990873763622,-0.10234566248031261,-0.10199976892244569,-0.029522394484791249,-0.1718208984196308,0.11849707324894064,0.26532286105053277,0.20692282619147351,0.049826453259392514,0.063604683711124765,0.050875811899263879,0.19062174005191029,0.16914363287453787,0.032386235500332525,0.074164028847950592,0.093224404460215474,0.11231065550996509,-0.085023026752181818,0.020722122512468209,-0.10696303480604466,-0.11634320455561584,0.11725084692696364,-0.17357130178441618,-0.15356021587268776,0.16043336346668402,0.0017274131563948291,0.18071886643018717,0.14440683273589264,-0.19196827097549946,-0.01261000057264532,0.19565804516802451,0.059498238506638136,-0.028077856039604658,0.069510317442436673,0.14515088241779631,0.1431690763160153,0.069901883952237134,0.19673800969799818,0.19859663647620471,-0.12029837276617462,0.10989526622113793,0.21361570917749481,-0.093863114663441896,-0.20126851140641022,-0.10161480992181128,0.065927811343637926,-0.10236850699797492,-0.16742391379398203,-0.18999812199930882,0.012880888224875648,0.19995809422853666,0.15410251677064435,0.16757103037904059,0.18007374356291964,-0.060854019428771021,0.25307105743719766,0.071609424462165477,0.10870684895095703,0.1859229545865641,0.27678454877780606,-0.079847891579961625,-0.1484252261537721,0.11898034724558791,0.085963807490702496,-0.029346620858470205,0.034342577593926477,0.26282340415856636,0.12460855271919188,0.12502905242954546,0.11702729534096365,-0.12132445893194219,0.0035373806347651984,-0.09991481759862178,-0.095900614854011412,0.22059361332847607,0.14055511361640627,0.16929888920101011,0.16037775641379876,-0.15117484639333106,0.045699439731891896,0.23077895665278039,0.20410913866390096,-0.2214541649812328,0.12623330022569401,0.2288767002126815,0.0076654862795086445,-0.084482767865197497,0.16446304731226266,-0.18174563016667247,-0.025748324339692232,0.20954049383206619,-0.10775794073741694,-0.072224317057542287,0.23702877700874059,-0.16352311501875283,0.22610421077261458,-0.0033863787575522547,0.089964954187556956,0.13813890568635032,0.16382373201126979,0.0059652109212325185,-0.10784547884224614,0.17679128663705498,-0.071225143816500899,0.19942074079001346,-0.1069159267081949,-0.18165828233775097,-0.045068098375580151,-0.072309982999987518,-0.10594149784732418,-0.13577777445666384,0.03055902822045287,0.073403211577027061,-0.011743059243468209,0.24623709883906023,-0.093880312437624472,-0.16856736997138297,0.061639380653181162,-0.035273645466785263,-0.14744440317448632,-0.091984554807062913,-0.2137778151947316,-0.16523776631374795,0.027278166057139556,0.1985494642647857,0.24637974325976775,0.23162292416846872,-0.042484419643681284,0.039028687125647402,0.19106023674434891,0.20207490965458896,0.08864940520663217,0.12670230651653491,0.19349026574858641,-0.029082625287634591,0.074170635023761824,-0.12082926956611161,0.17400326464077834,-0.12087260396185417,-0.11049204893239245,-0.052735146221589639,0.0092016534687353012,0.22612658569438687,-0.071744445933156042,-0.077391815175858053,0.19494691436392234,-0.17096218749271791,-0.087362148285203389,0.19302971662667745,0.070805684369779853,0.15671049982488247,0.21226598732742202,-0.017425827363436546,0.20540929321012577,0.10885475338830902,-0.17189438854500505,0.078450764784677551,0.1294971108770217,0.022395292344713914,0.081678609445655748,0.018502867580844365,-0.027614536143291804,0.045221692362759892,-0.081480620182159583,0.12365047855283133,0.091919965483513222,0.018317144707758155,0.15890216304850713,-0.006739914299078208,0.048098587492433557,-0.11120300526922769,0.17218150473961508,-0.11858682020416507,0.1988260168304104,-0.20070926704038716,-0.14483466391509275,0.097576294505339722,0.18047932384601201,-0.20073117559534762,0.14486294213663373,0.14651344550379761,0.086375443155238402,-0.12152318300814843,0.16009447826364248,-0.078541508026465576,-0.070426392248697497,-0.065752939156265192,-0.19757695259091212,-0.01506610420834685,-0.047073846757981395,0.050956766509928593,0.054739643959228486,-0.031387941504031354,-0.19215592345568999,-0.020026597198963453,-0.026489970400706851,0.08449272173974981,0.23617406913696637,0.28018694816606149,-0.1627547431235099,0.14919202912451468,-0.14789070848545258,-0.18888082707525394,-0.024440696075096299,0.15276641705225857,0.041771607206678565,0.1495970256795788,0.19609162760551191,0.15096721895669565,0.052278408295236729,0.14264566720969429,-0.021210305149071282,0.12874962563359868,-0.011507786948570076,-0.0011876504061543091,0.086297797076459001,-0.11289163888897588,-0.17346603148283818,0.15887733821182723,0.010277822295084517,-0.15676774089618087,0.1197712511716184,0.034151890160537816,-0.13060285026102417,0.10788622660723049,0.16050878681699948,0.015253924726227807,0.13581308398236516,0.25716248712972622,0.085004038143644114,-0.17322674559036308,0.24795471349943471,0.25561064194587413,0.013873962493660194,-0.023649322242455934,0.16172643267804193,0.2753197735747443,0.042833903875867003,-0.2283370392719942,-0.07237230409247554,0.0874236237597696,0.0095895468919035016,-0.10288024263098175,-0.00056594936864556237,0.12086743454186934,0.18299291086544428,-0.11339080870358956,0.15176332015519015,0.06034404848376318,-0.16572692923443588,0.17976552681752186,0.2454382967697458,-0.07915429475110658,0.2709826940340147,-0.042275747918906779,-0.038115123244782029,-0.051306585347081268,-0.05042993295136862,-0.077235496981158072,0.21728320149373434,0.14500506133447064,-0.094169217383284681,-0.16745793844287474,0.064404546370178881,0.17008975703905507,0.16556126302906191,0.26273390330762397,-0.056208829212178742,0.17753889035987955,-0.040010927446930487,-0.02603739354130993,0.13475146056785406,-0.13584688574133363,-0.12678005980143639,0.020990009300915338,0.1203512388745855,-0.031458327161325753,-0.084902334518840022,-0.029146991915078815,0.056615970587673654,0.085803899526213992,0.1476959877736729,0.065295027471813746,-0.1867702601589977,-0.075729703038505652,-0.078555998044879408,-0.10980985924870497,-0.13455249129386637,0.091200417615883336,-0.15008308804807885,0.13401520947046444,0.17411391632548878,0.19026677381048018,0.066805470676228204,-0.084533905295052045,-0.064498611788690055,0.1970588445236669,0.081539505943514765,0.064449379519962824,0.18002794915664208,-0.080703021918378096,-0.084368608715929494,0.1070244622550342,0.00063697267147921801,0.12506179698672307,0.21758816776230541,-0.16955724209062789,-0.17219348219699024,-0.097276655917159241,0.17533268336571192,0.19285995628565442,-0.21400319928335787,-0.14564230516944776,0.13213124460904069,-0.24489242470607464,0.18430865946977237,0.11806896797800769,0.12110517156354439,0.21856629059878524,-0.10268106124849857,0.069884138397122583,0.16121575732250551,0.181928729423739,0.10027624429782518,-0.22814121669743534,-0.026219726036657634,0.20277677572969638,-0.10234906844056704,0.24541489425499907,0.111929911983007,0.1210867972367648,-0.091706274855899786,0.12363283947281511,-0.029898561556529368,0.20826032158754268,0.0051769255410497326,0.20490381028162336,-0.11957552856900429,-0.14428408870815645,0.18779718538554421,0.18645108675179226,-0.14222204420052972,-0.13725656423242283,-0.1080944502423891,-0.17671384181582769,0.10262553859268408,-0.031604991035946287,-0.25744287381324593,-0.17653605396388897,0.17957583617873574,-0.062780413062064652,0.14931929103691766,-0.10984440720886735,-0.096130895284126369,0.1954050019004733,-0.13536194981275959,0.14761399548845608,-0.090408342094564248,-0.082483960262428352,-0.061737675137604919,0.017054137036602832,-0.08930881035642288,-0.13301472758149768,0.055943617266435569,0.067408014852737591,-0.10799401283689007,-0.048175681799077677,0.030427052335334031,0.20874966723978214,-0.053065695697846464,0.13602218764077614,0.17511208556130864,0.18936432594942951,0.058090175912532696,0.077010961262573632,-0.12192627635932286,0.13189601748965915,-0.20502151489726342,-0.11887154641620047,-0.10787730768848114,0.15701883263362343,0.0069275382910630613,-0.16634693237125603,0.10650252218005307,-0.0036362696741061018,-0.028952611495975736,0.12381066574141346,0.011673581184162625,0.14251702618716988,-0.1023238864026783,0.20675694795205779,-0.084317338801909239,-0.2315754688228002,0.24958024224089642,-0.071028387637460319,0.090605975619989662,-0.027373178245738022,-0.12850353132880471,0.23086057988899769,-0.17433320559457766,-0.12535302067296275,-0.041503263730399149,0.097183786017972007,0.23831540560959935,0.095852047738089974,0.15077574779787314,-0.075945766781486068,-0.034071296593145534,-0.0039118609016899732,-0.11413095981505389,-0.15999138882002692,-0.073201400151862425,-0.20520388758104663,-0.04523587956849285,-0.17973107424664106,0.01787549732934969,0.11193395560467495,0.0873539627699014,0.11773577884644121,-0.050028253141450603,0.18764983562578294,-0.0013591506994567793,-0.046956869607327083,-0.01001436708610802,-0.12728143526719848,0.18068456966546292,0.17110000312908644,0.077558692664333989,0.06113280019348951,0.037212453385165913,-0.094772073068068424,-0.038454355757809422,0.15142962046732089,0.12277715788513263,-0.029953533181299358,0.13818271386102451,0.016418835651727307,0.02907817182390237,0.19095558346973199,-0.13776412594441739,0.25492567526804549,0.019766452086569953,-0.05514337630825572,0.19262319827157301,-0.036177752546978505,0.081959649769872217,-0.13437075700014128,-0.19679720519696847,-0.11869902746308432,0.19924146298916126,0.037823476869805542,0.20857415360090395,0.24085195499751438,-0.016792320810196878,-0.01414188273242554,0.23608901222401887,0.18129890887036665,0.16676443072180164,-0.23368837257164909,0.15688331490226054,0.073157903755370166,-0.20137945684162226,-0.0042870085755678114,-0.19586025273082966,0.010617667977166586,-0.15942116330861916,0.21635313189540145,0.0045145959483196066,-0.057628687279030658,0.11467432344960007,0.23167000302428983,0.037309169705705705,0.18503139029056567,0.12678913105712272,-0.087951293749625362,0.18210236303845131,0.20165058363068319,0.17149989100544069,0.050477917893851705,0.2274514514155688,-0.10401874770203799,-0.0074101425536239078,0.15337014303984642,0.065594757988753888,-0.21713811544873168,0.18001208203146399,0.099786523977733993,0.12185562852251883,0.039271461184134507,0.0098774744627952854,-0.022064601160011486,0.12448816126503304,-0.10412670357500166,0.0469489001468366,-0.062261952694428649,0.18429885643124677,0.18432970872014937,-0.12085601540104779,0.035277893614850307,-0.0287013061381024,0.14858422736587795,0.23837203106294272,-0.0068244329040720838,0.069840415391122831,0.028358329703777174,0.088910668259422912,0.15458613021833115,0.24674175672312787,0.039140109182672161,-0.019079550763622246,-0.025490309519202795,0.21631133673631459,0.2506194472179592,-0.17682425386021217,0.12355790484316159,0.23666847728835325,-0.13768325481956437,0.021720803051342875,-0.23180960231624267,0.044149360203870093,-0.17296833725368888,0.20305697429615988,0.11583185266038822,0.24281752606449936,-0.2069377905853986,0.2472743084933986,0.099084130664966408,-0.24490974638445409,0.1520643483775429,-0.18556919647765191,0.024965363443813521,-0.1194293088470548,-0.086053111552678113,0.035746485890254941,0.13423740633748704,0.080740420586558129,0.15279161983330736,0.12713227301365723,0.22037892049672533,-0.14518083851832073,0.20935264643072149,0.15521199265526153,-0.17922569192339291,-0.13375398527473428,0.07291468487590054,0.11361423876810804,-0.19080238664951057,-0.19267767750555836,-0.021590950941082033,-0.031530404453905495,-0.034545826068936372,0.12640055019345023,-0.21889767131606669,-0.1550077400100984,0.14607180239951262,-0.15418060946813167,0.20959416563248812,0.24053764157956833,-0.11782374900353618,-0.017972714063096976,-0.018576055884241462,0.17322140978110753,0.18876154039353768,-0.023154574836136713,-0.014179788553196928,-0.096690527502739529,0.012448794194208345,0.058064604890140523,-0.0393409367373561,-0.20812519540642241,0.080256943379821671,0.088220293962988874,-0.14285690901821141,0.020860624184201874,-0.11759772829324903,0.098061597731883735,0.28479493596521299,0.17995651284558242,0.21025050222962716,-0.12614362281574401,0.23733061088346533,-0.1116402564452785,0.20929123247976439,-0.0091849434148449614,-0.0065665511124646369,0.024453385369753444,0.20283135655042192,-0.11119721631790939,0.15813569969987509,0.058281425880343664,-0.17333460722694116,0.14849353452104294,-0.094719047789130276,0.1911051365225907,0.16418820870585518,-0.18225589068490067,0.1448331230735207,0.020734104632011158,0.10508953971854085,-0.10821058036348301,0.18873063788750039,-0.056906227628725381,0.19857296549095219,-0.069787892877457652,-0.18480066369914308,-0.049767661201988764,0.077835774582494729,0.20996694564036733,-0.036247178388438453,-0.012985056382789281,-0.10862894317022492,0.29060098925585859,0.13301808923825817,-0.09515702472104727,0.2090144011480172,-0.039302669497456741,-0.06506578143977014,0.065409527884427096,-0.11227258596928619,0.13037336729121066,0.13573309324472674,0.079192500440744454,-0.22098446437718802,-0.13012052836535321,-0.005477497063131896,-0.22949147669350919,-0.14870054291407589,-0.19765108887816829,0.032145192328628523,0.10071586344745923,-0.15643423034998932,0.12115015137729206,0.10563542347541632,0.080835173745261876,-0.16350337983607288,-0.090063279396758886,-0.048214971188289761,-0.15206588553655262,-0.025360752172595372,-0.14208474245391539,-0.034440229082064081,0.23773341007101967,0.20181335484221002,0.041348115310859884,0.040336555305542247,0.2422600407857417,0.074468352201267893,-0.1976457826707434,-0.16871333354929735,-0.020521896782578236,-0.022804997444850126,0.0068336863737973137,0.24263412993516784,0.17380770311283608,0.014877602070832026,-0.086263931789507531,0.2133932471984806,-0.069778815379114276,-0.15159482611322941,-0.17324716044942684,-0.25114053028450661,0.20820710764920003,0.074373446731881329,-0.15593445871643569,0.028468872785966236,-0.10963030370537623,0.22028086142739578,-0.052425864090565766,-0.067471149879903602,-0.024630782024889775,0.057918369480213248,-0.202103559272023,-0.15443726624348658,-0.18478798761369489,0.045492384151356299,0.023812942115945986,0.075905483556762993,0.057340193933369858,0.05029159321382938,-0.0097297123720854282,0.17983284350408996,0.15972518725900212,0.1791256540949282,-0.061768847367667391,0.15934070200776185,0.13728332903525764,-0.20152142471235779,0.23449400074300344,-0.18999810432212155,0.035387416072113279,0.18636240344282293,0.17234778467576978,-0.1343501033784153,0.05253440235078196,0.10615073383349946,-0.062343461655552372,-0.010373590426225241,0.15036760456005629,-0.13415238037980848,-0.084167037724473745,0.17593475904435521,-0.10029505823888515,-0.1722471307388119,-0.097012784379895051,0.11407251194492124,-0.1613132480450678,0.0038247052833744978,0.13194452207717799,-0.14461202201207807,-0.24868329902675163,-0.068006087953985356,-0.0085122474456029475,0.10803689462430507,0.094015729473587079,-0.043698052486942737,0.0052235503051491902,-0.17950328730367407,-0.11170294192477075,-0.073088536052092812,0.20610361716437064,0.21983090781247608,-0.1133050419608478,0.067089822921549774,0.016718423969987097,0.12582476750467633,-0.17227263525796763,-0.10053294529635379,-0.0031467996747476744,0.0086574559875266625,-0.037476593436901191,-0.024346053734920159,-0.20477187630700883,0.07556005969293178,0.098211812377738517,0.12477191095196372,-0.23408344851636523,0.022075460769886979,0.02188608154142287,-0.16908025481150982,0.17394622859615658,-0.21304090189013028,-0.0014393398897676781,-0.076006843737846622,-0.014018920890333277,0.072569141016715022,-0.0069048808984479978,-0.017672065008569479,-0.038872211838173895,-0.19677238043734391,0.11104550719350313,0.083507424316538195,-0.084516802085669945,-0.0089871777598899052,-0.035373265553924442,0.035195590290739084,-0.12612729008864348,-0.13921555637857719,0.13025769128271886,-0.033046858477833757,0.062158326665776142,0.0091857773496097049,0.21935854690490039,0.091665695498617542,0.097430274819467672,0.044242109768643338,0.067462134961690165,-0.21141952898307723,0.048269325169505724,-0.10580198532543686,-0.035841344219746114,-0.26348883944560236,0.013504367469650577,0.067902409907644776,-0.1718218021712348,0.12740217332190878,0.099953382758851891,-0.29699090232371517,-0.095963687373388062,-0.018391775566217568,-0.1270978533152532,0.15601844164783726,-0.12291584454576324,0.11827220398887343,0.018268164029828449,-0.15306735438413915,-0.13120507130983092,0.070409370003860661,-0.21903861346761022,0.0026275060514746292,0.11713857783510823,-0.18960945535726687,-0.044851221574602543,0.13840886248675596,0.1798470883131783,0.091468824517726657,-0.14037348359760268,0.13438877093861809,-0.24217001776886185,-0.11379867788112139,-0.076855812122446895,-0.26215370759722262,0.033536699532699006,-0.14835833619059602,-0.23110307999860685,0.08694138222852614,-0.12620005213353996,0.14181867605789517,0.11518017012076499,-0.04346423918644908,-0.24866036809430858,-0.10323022638098493,-0.050684465574244428,-0.043350308535431502,-0.27403725152607661,-0.013039513283061651,-0.13581083094320126,-0.25100684110544824,-0.019669252764597762,0.21121525219929044,-0.15207797590228483,-0.27221088534428756,-0.040499829631018509,-0.18517087891253356,0.12671523124079184,0.15750923842017464,-0.08876070207270316,0.10798942741418395,-0.12794521969921327,0.1776079128154979,-0.065196402448528215,0.044416584756266551,0.037988743612443102,-0.15996985550543402,0.019711028439932107,0.030921903799932,-0.20436693324800112,-0.26124216041998061,-0.11425728177472033,-0.043353460351331599,-0.29207509042194862,-0.050471498249569188,0.054504027887122962,-0.061917828041987727,-0.051574641166932216,0.073985587935299427,0.0078649893123703424,0.055852670556261218,-0.17991454024336725,-0.22209636463705193,-0.13284486015269117,-0.005264974961127271,-0.15678621080852126,-0.10999085531702814,-0.1242548079492507,0.11936332161647718,-0.28809663766125743,-0.13702930590795337,0.0093293161581259644,-0.13188023638782428,0.11258941215826584,-0.085009374634147497,-0.14878413612987368,-0.071758215553127044,0.031529120357403122,0.034277176119942569,-0.071874775487170237,0.093323677951838227,0.088605584389866876,0.11494561652212941,-0.19643583830266856,-0.18339352251497951,0.038340672342158662,-0.025221169683418414,-0.254778770179867,-0.13914660063725112,-0.118359557623206,-0.055518561737041963,0.13470011151758152,-0.35569881659744612,-0.072864408492645,-0.19184378158778698,-0.080769584442673903,-0.18811067893072009,0.037002740785097875,-0.30283074211384498,0.099637610071442187,-0.1247289587259352,0.046640340369372715,-0.15534595719411609,-0.0071945635326407555,-0.24242110310300602,0.038629372255041421,0.10874821916764388,0.040111146418389518,0.096667524351654585,-0.21631990721782371,-0.055739262149156345,0.15445082623617418,0.09531776236967858,0.19847331753871594,-0.087396212030247042,-0.015893125020059684,0.13978893458926164,0.068509975323123029,-0.30230675924677619,-0.013644635281313567,-0.14603015674968542,-0.20688525881343675,-0.079631428340484339,-0.012012459460832233,0.047801328478315558,-0.13360731612643081,-0.096271543194865805,-0.10218990029370935,-0.22565554638235341,-0.25061687436948749,-0.14658803795974859,-0.20451960226039956,-0.22875012703692946,-0.32421096516243708,0.078966811239753257,-0.14112602937641641,-0.14135363588182373,-0.14396514417857523,-0.32207777592156489,0.13534761100607012,0.13264235200129346,-0.038634817872889311,-0.019607837768455184,-0.095254292328990395,-0.11396188702333132,-0.2597398105540884,0.18918490580471806,-0.14637142154183974,0.11401456040017842,-0.12176395980913307,-0.11585282066010565,-0.21777259378751074,-0.013576523238505571,-0.011653534256671266,-0.16703606526642228,-0.00077708680286475132,-0.37772943567357942,0.094134769890873687,-0.10730259920732903,0.040613745762541557,0.084923390325390702,-0.078832949450658316,-0.10570129086218343,-0.15967186345199996,-0.38594914785794859,0.0017894956958831056,-0.33969886847648051,-0.34199501323046577,-0.22590217029858023,-0.2289294336775777,-0.23201741443619928,-0.29999833844816731,-0.24359361840435892,-0.25544298370293633,0.026481485002318464,-0.28645398342952622,-0.30052971973321374,0.0068276034919453965,0.12903143167663891,-0.099912858243259114,-0.27045237173690778,-0.21176833901260422,-0.060803108277864337,0.11252166579112295,-0.22081809275532677,-0.18549760821578223,0.020872909394426521,-0.13657045110433261,-0.12871409430879222,-0.28456479115625105,0.01146930030182774,-0.23194221235646434,-0.25286899661945889,-0.09381865514256664,0.050056612544458971,-0.23658563759113604,-0.39675525140033252,0.042441635780051695,0.065890167986405762,-0.2826850843343986,-0.36241752766379209,-0.073623399565743181,-0.26824835187141133,-0.033497708403996275,-0.22682071909692769,-0.12302266392531731,-0.30117880089085686,0.019670640299943209,-0.015769529898419891,-0.12856821665148088,-0.085577556954103171,-0.31616567325521872,-0.030663781281162386,-0.25570913533893908,-0.26266372327228993,0.077108961809175591,-0.08379925078560245,0.030205720710542994,-0.20164135981396197,-0.19986030901428586,0.09613573230673822,0.052415089982191812,-0.062613777029833451,-0.17930392721497185,-0.26338392332821575,-0.11434375527189049,-0.16198213832961372,-0.066022101547084946,-0.17337862106949739,-0.022529050306961385,0.060185744687394703,-0.12064660199104463,-0.3379039749853287,-0.37011017784405276,-0.0056104642579055189,-0.20378649653005901,-0.32226569978472647,-0.31330550869068591,-0.28266040033988016,-0.17677438778420201,0.049537505190907917,-0.15734934991315158,-0.16018993238877954,-0.23206743467568655,-0.16535183236215817,-0.29061415561307963,-0.20410439267122843,-0.23265501115903686,-0.27103091511068311,0.10372246203787394,0.091405307420986945,-0.31826787711433979,-0.27912636763902471,-0.29896949352919688,-0.33418054846634471,0.13135814878995944,0.090255672338477005,-0.34602986600592822,-0.0034342716045062628,-0.053956436077468084,-0.087388122254844242,-0.039066890296180996,-0.1273997344489988,-0.1362798189222974,-0.34866197570366275,-0.023031234177887952,-0.049775985602658668,-0.14552104807644461,-0.25568649147988165,-0.22109217706121267,0.032653278550712372,-0.30342869603449557,-0.079839469843526245,-0.1519986768496823,-0.084802999172748292,-0.31654061202872319,-0.33287010450915272,-0.26794684611877617,-0.23919859928017354,-0.12997173950488083,-0.21951198207802042,0.046030636482305584,-0.27436044091112949,-0.069338020049733551,-0.013748169460662721,0.10278789752790315,-0.10843871271456593,-0.17422926230503694,0.086857717490564298,0.10587541863057147,0.02629479860560268,-0.13148452009298844,-0.22506754479067387,-0.32236122343310403,0.057471308379803895,-0.26244715136048219,0.024003598818459614,-0.090253680199830599,-0.19511035552102488,-0.30474412755443081,0.0062022058254133554,-0.29324400199226086,-0.21916239640486793,-0.20336746295855371,-0.041633293415188455,-0.14458520760756033,-0.10823078278211791,-0.30459374998395339,-0.18761697427842638,0.026555298233289726,-0.1129852754550817,-0.082715564406760908,-0.25504099079999615,-0.36255755262899653,-0.14266366833924507,-0.31923231444001204,-0.22302317610849254,-0.21342456285514455,-0.35309320978272141,0.017444494653595998,-0.2595869709449784,0.03688566096777475,-0.31750775503832446,0.0027552345942331159,-0.15177022857239403,-0.11192595072005984,-0.067838294869999052,-0.13017942020447648,0.057083685395239663,-0.03934170813681527,-0.084783490586935628,-0.40235009764103458,-0.13227104859005615,-0.1779520413967571,-0.13228418673511752,-0.31736825327482215,-0.17940225860046627,-0.34707078567641597,0.0123455734603898,-0.13677064651007703,-0.0031504146527834985,-0.3109033716878003,-0.41369634144090855,-0.036328777168664221,-0.23658431326537735,-0.22832319887582059,0.025404630185266654,-0.038328019469473833,-0.041918894645033816,0.034259863369157692,-0.35930226915628494,-0.066741644745408515,-0.37034745298435479,0.046640340139437783,-0.10661930526617452,-0.15541306358421345,-0.31217003733437199,0.02313327056501514,-0.064345350786590941,-0.21566478483636725,0.10292900064578228,-0.22642634224425093,-0.29362826069394427,-0.23342025015962853,-0.042524577692731047,-0.18275155432735321,-0.011292454582362676,0.055866164877571831,-0.035674378376681956,-0.079529421070822698,-0.069094060917840774,-0.24581794975544244,-0.18897690818081989,-0.41510731576222432,-0.11936777918704651,-0.46136138728214104,-0.08203767099285493,0.037156935827362403,-0.17626992786450055,-0.3345307554062471,-0.20894199902327878,-0.41501818499873339,-0.37481850155433366,-0.042218585001508588,0.059699831779184788,-0.11720962077268059,-0.082640115709401177,0.041722310589603087,-0.34149374601734783,-0.20164542496612589,0.077323562252218439,-0.090004811542170299,-0.16971009517856811,-0.21314209781109794,-0.19447057128466008,-0.40077902588077213,-0.20196864161197886,-0.17140843192214159,-0.23433573137138899,-0.33998371126215149,-0.29857038436501065,-0.027110674450195542,-0.1043255695737389,-0.33435405031928339,-0.24929677512097015,-0.04668622654850494,-0.036126871141115,-0.26820466484580474,-0.33338441155860116,-0.14600811705971359,-0.18810399998996183,-0.15329335277606776,-0.026071178912542108,-0.012028465355921489,-0.30652442147209585,0.015717088083152007,-0.12029599214942148,-0.33512763040077376,-0.34884658529867979,-0.053081274210120863,-0.24048429730567933,-0.23067808597472025,-0.1302265763638959,-0.085507183417505891,0.11438132113497236,-0.030081666152548047,-0.30894879184656676,0.0054077167384314947,-0.13478671900098252,-0.20371991434014819,-0.098729344613885134
0.22388173139548631,0.024542652109730174,-0.2086253480528947,-0.099738227857299647,0.032004219791163309,0.06181274682245317,-0.17137445343091137,-0.076824841323202789,0.22796791867878483,0.16929306578477565,-0.03387248083393983,0.21665718130272318,-0.039936719203067246,-0.034838657185610918,-0.0037413675335158788,0.12296456279497901,0.10969515134709305,-0.042912034917569057,-0.015808228723185849,0.0028813499263458209,0.21543118155184898,0.15898085380655858,0.20049373124063657,-0.085383521609911223,0.14669761178595517,-0.24407239360400435,-0.084673769488061865,0.029452801139988112,0.15597494880960699,-0.12122550589174716,0.23442926488235119,-0.1525211388349634,-0.041939652993804477,-0.03282293921206942,-0.20963942860098553,-0.16054416129345836,0.24826260783267187,0.017913624201847993,-0.11089317440451664,0.1404604929483815,-0.007848960215434294,0.1359244171774607,0.14950009764656422,0.019192017857112154,0.15145257257543152,-0.022410118600933421,0.027945274709092568,-0.063274503863893938,0.063015289804646352,-0.087422840533842486,0.17526915553586142,0.15936769775691867,-0.085851307101254978,0.065598670238814771,0.21410401804091186,0.0246093051441457,0.27524894050347076,0.19081771893607646,0.10788668858210164,-0.17792616506602574,0.014268466071160944,0.07233068913559855,-0.15829770367137738,-0.17682172278548225,0.1914348234668066,0.032256850619301447,0.0036614601750146795,0.18523545309942144,0.21979513126097838,-0.19447346375203195,-0.016636087607217288,0.23643931703000923,0.22787648438145197,0.096016736508760414,0.12826372726164906,-0.015408325431483265,-0.11040198228158611,-0.16048331237190147,-0.19328825125566218,-0.14643146455829559,-0.081197374587238011,-0.07876388388904336,0.084439474510870333,0.12978968837278931,0.15600282363500925,-0.01951105648397955,0.13247612186560484,-0.06363358026911832,0.023146661468937298,0.040979324938201597,0.011112935475597142,-0.12542617720979948,0.10342207449277398,0.19517135133386759,0.11120025358673746,0.068131665470257841,-0.076626917167311084,-0.10595703742593658,-0.044188407432088489,-0.19679769923065094,0.23085394682856186,-0.24351685670076012,0.21805132055369464,0.16796595614280282,-0.1032911915917003,0.16602100520570648,0.11709928924289333,0.055272612575872633,-0.17674372898492721,0.071068575146543536,0.12426267884755955,-0.027038368152184904,-0.017522008972355042,-0.11191234440954746,-0.1751258529553805,0.058622825796415992,-0.077901728389162095,-0.173677762468293,-0.21192187047421535,0.066813763200117199,-0.13057399985343182,0.21634142280045257,0.10619223249756277,-0.017084451704083133,-0.20228660149955066,-0.17910150510350567,0.09335077716793419,0.26353040678951217,0.13369182888424166,0.22878693300090827,0.15762740836279898,-0.22695694585361181,-0.13696245536376944,-0.02978952711281364,0.11388912243492039,0.0357657560927735,-0.19799668908035048,-0.19197762965497436,0.04512509960283622,0.20237903985334774,0.055983804383693436,0.0067987330177209232,-0.069121392030701834,-0.13523483302224742,0.014664754450293605,-0.014599741969432105,-0.0057699941600680808,0.15383366045623834,-0.079409691780464531,0.090678525996877701,0.11489680616050452,0.24118082159239967,0.19716642656498434,0.13593272712817742,-0.00654065191824165,-0.096497009794511382,-0.17844542142759978,-0.18254208581960019,0.028718775377487276,0.16704416740214875,0.00013320712589834363,0.053367232173252351,0.040642993784202983,0.20992385037103975,-0.18852705065117442,0.11532795057494054,0.15073702520730248,-0.058361059135269948,-0.10418231856700705,-0.10595836104320203,0.0068727247970874934,0.10078999201153488,-0.17281530773386838,-0.085316352941804452,-0.20083127308282736,-0.22600133891285576,0.19969601534121492,0.22503032639478121,-0.19864441504393912,-0.1389065578151942,0.093503812329017458,0.19842738476491456,-0.18878245059932863,0.11845304938793159,-0.0037984496494306358,0.17246698334581642,0.22021204475598502,-0.073474381951945236,0.22445982305846815,0.074955070047840605,-0.08635781135654505,0.14155981368388568,0.22108290477271553,0.19514462896042847,0.18567135602983351,0.19673558263233373,-0.021284937714183393,0.0089357990050089875,-0.032992081461012623,0.11297822699096435,0.1707726047963421,0.11420770605741208,-0.13120642096329024,0.20230859212708893,-0.04228940130660612,-0.16276964452211909,0.18006410172527959,0.029389129938695094,-0.2283261239370358,-0.047127473916728217,-0.0046673875501717721,0.13732794732809764,0.015124365664458773,0.045285942755663076,-0.13723781800280402,-0.23746827463928527,-0.099559936998619245,-0.040500385114528165,0.22920135615311152,0.20755659395580744,-0.1069565771118041,0.22998001144028815,0.15748654606662202,0.062869761639220312,0.16465001497945936,-0.074045774648557466,-0.027250342086381378,0.17072210432708707,0.11631387400463535,0.0089667166493564068,0.23232189459508418,-0.23548248162182195,-0.20106462772690045,0.12888544584430178,0.22404891712137645,0.13192233294426858,0.19109491523058822,-0.20779306886835139,0.056033831890501498,-0.1680758072521164,0.2134077798160432,0.013019619682797792,-0.15421164760268755,0.1371603572084012,-0.21658798957634429,0.12031997838769212,-0.080310814278628351,0.040211664312851149,0.13372068174216478,-0.20453543943633415,-0.17786162648393672,0.039405937796838902,0.21640590661228612,0.081367696583303284,0.08387935549856089,0.1729688658254773,0.045970091587697666,-0.13718633339214473,-0.11858455323560567,0.10265886215680589,-0.072472616093290768,-0.22118616386178427,0.21966660706549632,-0.14231147409030914,0.064394530259791916,-0.078560296741142385,-0.23248967103104604,0.16788485044488388,-0.031564224130412953,0.25520443330582077,0.12640350516982293,0.20024236316371616,0.14386792487032357,0.24432921303256266,0.13010124668155365,0.030594260825494709,-0.068392771920638709,-0.066354989587290317,-0.0026048931146281443,0.13498122874005278,-0.097217505221703762,0.067107254374713904,-0.024439959927669442,-0.040438421131432069,-0.010658850885810599,-0.15352324502074538,0.028832857812331258,0.023839473220064303,0.23144480693017888,0.071644645471410084,-0.019317656923032174,0.043395493511015931,0.13488832778749052,-0.0029214659090490889,-0.11497370210571259,-0.033868944423955404,0.16264842661768272,0.21847871545059075,0.20736361783489177,0.12852096115123934,-0.073215751677228727,0.13479215269093855,-0.16137452047421622,-0.12487273264128924,0.10703154341291309,-0.16093339750829691,-0.053639631636133583,0.097201884046717354,0.10874124731146112,0.19524081604156093,-0.1622897722931303,-0.18909428329678257,-0.16019132511556811,0.081780065687283257,-0.25030201841650851,-0.14802950170672372,0.013737787120453697,-0.25257614636420811,0.2413525540213585,0.23916943375972222,0.083751085481346133,-0.060733717453885283,-0.083278764618463785,-0.11258523998827542,0.00246983034430551,0.056763924366474143,-0.21504261782917761,0.061233490509380144,0.22603305503030624,0.097488955542102171,0.22703817115761349,-0.18940892014304153,0.16007794352281685,0.2356299918309506,0.2323683275240935,-0.031055246275689966,-0.22008068814159984,-0.11299046447682068,-0.098577224209536421,0.11043074920736937,0.19069043032086602,0.046735298021777963,0.16349691676589886,-0.17934337730591199,0.074315515167529766,0.08752873176776102,-0.040461502912807333,-0.055567647527361985,0.024768878364730663,0.10964745555568473,0.055319501355076461,-0.20130007041863376,-0.16311898719383561,0.10169402890293683,0.17053327908060786,0.17684074512353254,0.21257531145836614,0.13694246516126818,-0.071925994394968815,-0.19875663483372102,-0.20486093581197407,-0.11519601014123744,0.060998311595724733,0.12737244372875048,0.24507864454729938,-0.086950776585286507,-0.075602498252200639,0.21742747189936015,0.030088227945252788,0.090257691492503914,0.23181663843380002,-0.1781114670461626,0.047831965551890177,-0.071104980057794795,0.18240495964770087,-0.063396602264938304,0.25708691397572242,0.22720915420917365,-0.1424171030240369,0.013072108028698721,0.072742897063504952,-0.10346569068819482,0.21108126093486071,0.11573618793780066,0.076434552513559545,-0.17877398741549294,0.086821287808888453,0.046349244963643309,-0.051720089442577617,-0.063409652639630526,-0.24718269897899078,-0.1135193368762636,-0.16866884047341529,0.19590231483497639,0.16643481617273306,0.17688131366966822,-0.12717129436467928,-0.22090337308175534,-0.025614919240919673,-0.081275618809228456,0.25592032763970562,0.0092474148159003063,-0.081868222244597708,0.2483741050443527,0.071648633139038506,0.21041456550357687,0.049126640267820057,-0.20605361501891289,0.20715879189357345,-0.071575916801175546,0.15642695059634434,0.18530034123260952,0.16100569424592132,-0.12803873189151985,-0.20736734269245799,-0.22820655466645992,-0.23534408229727616,0.0086261021749032933,0.072698075403422976,-0.088692454191358044,-0.19215739105558882,0.095344102156998026,0.21469944811267724,-0.035938872268557714,0.066120127207345142,-0.23164641927874802,0.23118564019809293,0.0085202854487058059,-0.04229332823272855,-0.1155284783444263,-0.18305916433406605,0.099486486845072095,-0.15271587824585245,-0.15709891724162256,0.026794255222065598,-0.16866141386133618,-0.090177913272492388,0.10445382024925237,-0.05791371233665582,0.14031779762159854,0.25324119486977581,0.1873315820890406,-0.17715388647396169,0.11730988893763229,0.18217411037440556,-0.050271085847997221,0.093833842140495671,0.027780675578828958,-0.091298523205802951,0.19846020579867307,0.17909208585809641,0.17954472001773389,-0.15139162571618273,-0.009675046468160229,0.23065993448499403,0.03340684901444179,-0.020760938904468181,-0.024200607950188639,-0.17923926276847829,0.12428801673565211,-0.014472923030448448,0.024370118942936829,-0.1000556297050486,0.0056875941992093589,-0.1033312542208321,0.01531087874743968,0.044847059457873865,-0.14768834844783346,-0.16260361942447504,0.047933219292339346,0.24672891619813728,0.059023355494666606,-0.13664563821218328,-0.08218316204614283,0.0071606201309684907,0.23430578277945929,0.26815883175125893,0.26931526222832147,-0.17259303347184293,0.20046120198868095,0.20590689395889966,-0.20204482375155836,0.070658019476765407,-0.014940032524656959,0.082427942237670193,-0.20203699223035337,0.21253917035630832,-0.0055837848504889142,0.020529124929360511,0.088625678068212657,-0.14940150482291711,-0.070593260821201861,-0.063328613664407424,-0.18753791409406337,0.043937818804058414,-0.18517911061897183,-0.10137598532665358,-0.15882921542186157,0.096893683934158523,0.23477757623253981,-0.085805571636407632,0.16929473414104462,0.097271154188931619,0.10318598468408832,0.028960870740105438,-0.020411603331715492,0.0090752487736132509,0.020533252313866272,-0.086198687325254958,-0.072869900658337108,-0.11479127714203152,0.082461525720397666,-0.17626085523622498,0.13897011794484274,0.12202682568907793,0.052894862220359565,-0.13237718474444826,0.074426498459810378,-0.19814091283795804,-0.15833771512657255,0.13475565681837362,-0.080322699156687147,-0.014675116723871492,0.032517989747358082,-0.010459445960351671,-0.21333244429127562,0.21665256450316864,0.14577046607103872,0.26199869780700341,0.19918203818293703,-0.092741560881442781,0.014191787443666219,0.14838117639108217,-0.21306810727659087,0.1926683820089003,0.015801952263943903,0.11785583988766225,-0.085540096368169075,-0.022855701847121039,-0.22676411819222347,0.19994619464378999,-0.0042263758976623959,-0.15340844464250011,-0.18804188091530466,-0.061284584289454443,0.13521165353195508,0.1375913115510714,-0.052104866961335886,0.21194975288952439,-0.13063882142001906,0.20628020001547306,0.1013280034606477,-0.050327807063722564,0.14704979631464141,0.18379925003264497,0.024326905916915085,0.19660547356474151,0.060306301396658019,-0.25205853247217469,-0.096559021801596367,0.1094782183670682,-0.050430209619261791,0.050468069287498876,0.13686682493907953,-0.029932081292015682,-0.020785249200323416,0.12377553410240873,0.029295906206114095,-0.14087765924812795,-0.18547135224212949,-0.12750550470411601,0.12922025992459923,0.0044821448562737728,-0.19211695101786119,0.0083620288648089316,-0.041939641215227412,-0.1055915519334699,0.23176641502736614,-0.12487379170847138,-0.029745035931245858,-0.12345890762418769,-0.22008754518561621,-0.24800766267293067,-0.1959247566027498,-0.20608751798530744,0.044755543038235285,0.13589099223125223,0.1389465297443038,0.065701803895507671,-0.1646543724846832,0.21404183980638686,0.15149958221529489,0.19495329952079676,-0.17441838603789736,0.091106121275032981,0.15966398982546967,-0.20316328429084141,0.029983318298018848,0.11048960136801572,0.11931967999114647,0.21272805780241733,-0.12790767097613176,0.16288231818370397,0.067325518394263845,-0.27080714357027169,-0.1410281208488309,-0.026771811228053582,-0.16250466962565649,-0.23479329799155116,0.22363101542480884,-0.063537203822363747,0.25315077580950268,0.16115738830000897,-0.036202179253715126,-0.086806516975943035,-0.14546628399939415,0.00075749808589115671,0.088080589920701322,0.037511305904613934,-0.20172526910970534,0.14387967691758283,-0.023614388307843955,-0.24297673779815443,0.053284167904646088,-0.20117864526947543,0.16216691947601961,0.13284762586562046,0.17762949030448144,0.13489554442175994,-0.17310482121938234,-0.080688623070078916,-0.14544481352802338,0.19677511550020152,0.14974640382239801,-0.12690855996796932,-0.10817367063284722,-0.083254640752616613,-0.047525292920864173,0.010057717051968444,0.12863295778854453,-0.011972162563721838,0.22021292693754746,-0.14454576902725488,-0.020856143465754328,0.14249853013799774,-0.21249916743099775,-0.12425068125656744,-0.13124991674963238,-0.11265729025280612,-0.0076663543846834398,-0.12197813795235557,-0.21448347994674194,0.086797632821831824,0.19123039883127146,0.16026846424823121,-0.051723758798067614,-0.080527491631329398,-0.090680048029724417,0.083190240198119561,0.040201523424897273,-0.091134254767921238,-0.12582461112793081,-0.20091029759960136,-0.22172742257867542,-0.25293406146483577,-0.098990752721718034,0.14924251720374465,-0.11661875542473241,-0.23186070402217238,-0.0078744556948017672,-0.09672524641318829,-0.096823101031012118,0.026772089633015517,-0.17974882972072484,-0.18837010203255872,0.10023583890873351,0.070364168149038619,0.032966688736415076,-0.16097546790597608,0.17468608138080041,0.22533770501509667,0.175639935105594,-0.048210788880781862,-0.19053994646406441,-0.034473075927319893,0.092711423351467454,-0.14148730728306583,0.15466719786684971,0.22823134123871944,0.20266996159678305,0.11407509217003703,-0.13324376087948253,-0.085546161604973692,-0.15839326913585511,-0.24030903097324324,-0.078056635796491067,0.14060576358457391,-0.18016341306015982,-0.26575486666828751,-0.10816388223071347,0.18756114599254781,0.073439922890021006,-0.049356227533956042,-0.081686565070347786,-0.11525266732550903,0.08257039402495911,-0.03617226884965332,0.075913063304860459,-0.12242839746555975,0.2384351687258813,0.17558421534434188,-0.24776825520691875,0.015514107564340802,-0.023986121505487838,0.077499439489804381,-0.069527307897944257,-0.039650514673466711,-0.029718890982451097,0.043065656603756053,0.15625918742585823,-0.14102255936208866,0.082682675815299631,0.22803203140293593,0.18739432964316227,0.061982450953878963,0.13671673079194777,-0.019298479367359588,-0.028204409946193058,0.094201140822912172,-0.076854615312159855,-0.086799674389560572,-0.19529113790548966,0.13964180992217301,-0.26548492045043387,0.010704505503463775,0.24631702428320443,0.041316812934916458,0.021117335490590559,-0.17407075451063411,0.21286178373360307,-0.06907736634136967,-0.26049939059874522,-0.11146347068426722,0.011966273364751343,-0.12581584694175271,0.09259988950884572,-0.18470507247179535,0.11922055541485817,-0.20349851716359421,-0.034558126445135354,-0.17489974267430228,-0.1468533160828161,-0.26008233502712097,-0.21057930762994156,-0.2103357878681763,0.16736228909255366,0.20025998234867823,-0.14066200530639866,-0.0086433371225867212,0.12334671805186319,0.036329241839507448,0.12307980188978046,0.063544148714664128,-0.070496632168703069,-0.028029086517210321,0.16554657451725271,-0.18313929580317975,0.023556945381432822,0.040498464936230799,0.099693187508142725,-0.23377379250289412,0.14936773540297535,0.036935546233429657,0.243975921919348,0.019298570920540527,-0.13812477052269831,-0.10052738887024529,-0.21069972175028764,0.17466167172183492,0.14580329539603543,0.19187943894080503,-0.024945736767738466,0.099909686002392792,0.17626139385255252,0.19591794820642935,0.054165741956133238,-0.108506171935905,0.17597638711212066,-0.22291905507840082,-0.24665203066979716,-0.035005782973955298,-0.12800234315997808,0.075142922606146995,0.18187028055286503,-0.12464960526034986,0.017623336792852995,0.15077667495778491,-0.091163741314874744,-0.23759321488638555,0.1102215238457399,-0.054387071041458554,-0.078213096157659201,-0.17312278368934031,-0.24618912282976674,-0.094252050162566339,-0.020688268906941677,0.00083443058400693823,0.19819503482555975,-0.12609352254192949,-0.19481518717479251,0.049289415290537583,-0.21140985992258574,-0.16130203725957898,0.19330951308981567,0.15690456758929847,0.16546892820229833,0.17011112598452416,-0.21812835156844904,-0.023718629061556487,-0.037271164969736752,-0.14180974065074448,-0.0080596913320392146,-0.038847041003396428,0.079371525209187138,-0.21314419695268746,0.0049990488473373104,-0.16560831186062938,-0.16972181556782423,0.070367776744518912,-0.25549502585417366,-0.15140374649549745,-0.13738633306708822,0.054169813157155189,-0.060873950199945674,-0.17205544160702765,-0.23884697616543957,0.030332295413636676,-0.034329972302121398,0.15277349069322449,-0.16196827274697589,0.058288849283089701,0.0021088820648711127,0.045686529420957217,0.017774966867823885,0.091306588867893099,-0.087890590701161606,-0.056821724840103754,-0.22512514962302169,-0.077429342290100664,0.14057942579752528,-0.29597364060631542,-0.2094316779184382,0.067400698211304191,0.065633762307438268,-0.11444237909263795,0.064459102193387297,-0.26524948039641361,-0.082712030212161017,0.0067719363703500589,-0.30659533387157156,-0.24737692729466257,-0.13143413068121892,-0.18363400338277888,-0.18387555948395601,-0.061429178849605352,0.057721331933753027,-0.21512186341686323,-0.28836098051769127,-0.3034309078161222,0.030447237447419208,-0.23461619974742356,-0.18410875208117,0.065858081565490154,-0.20924856663942204,-0.0112971310527894,-0.081937118271486725,-0.062268104774930756,-0.11236785748794026,0.15619701296504501,-0.21950912307341675,-0.16502768700669679,-0.06770139911837679,0.1113131346597144,0.1292636349278703,-0.017585441419376659,-0.20119891717825619,-0.17324568435414392,-0.27373884638820739,-0.0095070254496498821,-0.033567681459999124,-0.26124185517886006,-0.3063429854461876,-0.0046044228769535475,-0.11542657482164283,-0.12275939677840883,-0.044766090720522518,-0.079211551217707774,-0.17349753620174371,-0.25197663714234048,-0.24090808613578554,-0.010382318640042231,-0.11647152101317169,-0.24547415656398744,-0.15866372062335207,-0.30551242824561847,-0.087748367834711585,0.036630094149591022,-0.23175139016640417,-0.2013824235764558,0.096613742581587406,0.14559287355643932,0.051441549521938072,0.12026439799928519,0.19876050093380962,0.16656461373064649,-0.0015598340555413428,-0.14252396454187083,-0.14519240668904881,0.058457872373208396,-0.21899632575095737,-0.1955478659362874,-0.19673737590626988,-0.21087716176941651,0.01093036411858877,0.1295653518417991,0.036907939647099437,0.093060910821461437,-0.11792395943642719,-0.17692825214225522,-0.24622916332891701,-0.14135282176300645,-0.073428316008535263,0.032564205325601142,-0.00047813806908084556,-0.011027754984734052,-0.23623231651143159,-0.26865522939751879,0.16966902019999999,0.14463132369459425,-0.12785134999684394,0.0039334075370008881,0.10763990472268675,-0.26114398680295015,0.1163430274540526,-0.1856261044089603,-0.2260318208187394,-0.049759208619497446,-0.17792791186254533,0.11841158562743795,-0.13487722121997556,-0.15236613573991153,0.018093489171847943,0.032550937803588809,0.037839476734305003,-0.24148973050751241,0.014307951153578552,0.1017457572228354,-0.090248126942873,0.18674287555259891,-0.25635590116207291,0.14887793823730749,0.074628574993875013,-0.19556246105809807,-0.29494875278997812,0.066438628653067766,0.09507367753512129,-0.26440225735858547,-0.017806882307518198,-0.23696143038072026,0.067337935593309292,-0.28181592698598484,0.15628017628079552,0.040389899779081938,-0.11989461682336239,-0.0078570730462914663,-0.2938678381082061,-0.1130807558775713,-0.088944219069382199,-0.010436499453633499,0.14480933649734676,-0.17737977383658979,-0.27749072601821489,-0.13998307725832404,-0.12664440146024744,0.10441779380077143,0.13428131317334469,-0.06791475527944589,-0.25503219028022878,-0.10343332973979487,-0.10751326011134296,0.096421118170159872,-0.11144176454854668,-0.064540131928019329,0.14215649305056188,-0.062723235774646863,0.1377572068131297,-0.17402592121543409,-0.30803555751221484,-0.038233208803472744,-0.23554956363625673,-0.12081878629024367,-0.18426860536476131,0.11137728789137943,0.04828054306404677,-0.27813012943720283,0.026148104205979933,-0.13379067168132899,-0.13087802918790439,-0.23096425222073838,-0.27171804998111743,-0.0030863450316981358,-0.16743069365703603,0.05932937482685894,0.010509416707603787,0.093324385154395242,-0.27028439940837157,0.10733234458217213,-0.15890809727254004,-0.26813285484376231,-0.20762208742119348,0.14992456511827687,-0.26112243308921179,0.070624953668909723,-0.14311191734667375,-0.16334688420289301,0.053965649721631502,0.16007268750958173,0.067293138324849219,-0.3332404237327013,0.055525979649237334,0.080164598153840652,-0.21777508712290874,-0.01568588378805702,-0.2933079593660014,-0.23321873101450102,-0.22417917783677632,0.002787609666556196,0.12451122246341217,0.077758268505286957,0.00053881241772571736,0.054562553470066368,-0.29431370299224957,-0.15856317892017138,0.11981737686103054,-0.30463455527974526,0.0057128452342238038,-0.2225586114980635,-0.15516834299478741,-0.31386620724251835,-0.024018592364497309,-0.061364336644156338,-0.052385496937565404,0.036545128953980356,-0.2727400775472687,0.11875786236854198,-0.017774985169533949,-0.12904614788110355,-0.22718359244685699,-0.20376614297007412,-0.12529127967236564,-0.15273561170307212,-0.21918898687764485,0.036221115563322193,-0.21476325487436715,0.12554802208608251,-0.29402888034723323,-0.25639385556408334,-0.087877278057279934,-0.057856096801893048,-0.0015632490737195099,0.021739555492534451,-0.15899173768897332,-0.18967660540352857,0.042007028676278722,-0.34038764961893447,-0.2593227708076617,0.0018819036780771655,-0.080685508315146648,-0.25428729289834429,0.12985457450080853,-0.24544393596373879,-0.12037753753499118,-0.21134669423388638,-0.12462066106191741,0.1364453163710202,-0.039669265916740366,0.024483178346020939,0.097509627503998053,-0.054397809844443916,-0.27426991120311928,-0.076394112443725445,0.17887794066015889,0.15542127470181596,0.039150424402830904,0.13614727678264654,-0.19093435073282769,-0.27713610050034249,-0.048549881286785904,-0.059821057278630414,-0.30399356065159883,-0.084061423829284151,-0.068525150726992251,-0.20291972699550964,-0.20000270442225199,-0.01133697660669972,-0.23716442340347771,-0.017695518873710216,-0.041128775875343929,-0.26004667814722598,-0.19413974874369425,-0.089067678133267894,-0.067655703216525573,-0.24401060413376724,0.071521622224927445,-0.33275117324584169,-0.11390578295277304,-0.1387832087638608,-0.3130261765731579,-0.30444776372978716,-0.24401983396654672,0.16349358938084807,0.049849009214091709,0.10916226003578933,0.12249047394984258,0.17777282855447882,0.16825279256406875,0.086448207350346001,0.05013226081117661,-0.17886896715773579,-0.1694020460493911,-0.32181377059752381,-0.093004918065245551,-0.32575247830219012,-0.19026403868895639,-0.13241777719708467,0.064479252586936361,-0.30918758151007703,-0.24119478707196143,-0.19125025947874691,0.053223297512104362,-0.28187479459377207,-0.00096689008135569809,-0.23031659267601179,0.12887019509966702,-0.081297777784006237,-0.20968668532381052,-0.10363521889738173,-0.1084799084227131,-0.29728128529771652,-0.14967277330923004,0.15617693869876123,0.090190307980940743,-0.16158643493662184,-0.031596176563972608,-0.064048602591803366,-0.045041763195761503,-0.033700230793902955,-0.095033130224674134,0.14067035664769167,0.014005350555939921,0.091982464701531111,-0.17739169334440175,0.11213053772334559,-0.026602813973592036,-0.25781257612519165,-0.095657855920121312,-0.12511123000328306,-0.20430694107346842,-0.069551001456385722,-0.10462821404660291,-0.13024906063647221,-0.069962875234418867,0.071310831028917582,-0.19038395069002051,-0.21699369242090585,-0.18149297577221599,-0.14730595172357869,-0.23322594488738957,0.056857258592080975,-0.32845379743601832,-0.331653284213908,-0.060471387501593872,-0.016829609738571678,0.043204260001708926,-0.30774294320607792,-0.2142564328340697,0.053140602216123593,-0.29322366954227852,0.14987992020738067,0.086112521349588578,-0.099228334963088693,0.19956416730408638,-0.25921913917025657,0.18754263229236814,0.13616047279233084,-0.17233118001841136,0.12627335902893369,-0.15903225807330051,-0.064458398454589436,-0.33071789631462173,-0.31135496089617903,-0.18203933920186854,0.12320725632793439,-0.040728239319950184,-0.221600967356166,-0.19672492541205894,-0.16817523109343002,-0.03177884954346414,-0.063111922950896696,-0.15755203584577182,-0.024420414640113887,-0.2870390514772353,0.10006771087839536,0.14515754604572406,-0.10300577189403839,-0.31368465943643192,-0.02293030687810604,0.053343580651888468,-0.27221251327941309,-0.27408928282747458,0.12346191249622331,0.14164405637287247,-0.26290154695022538,0.010805748951038337,-0.013915473061680761
-0.20745117724183426,0.03345015943902082,-0.24959846996843132,-0.011821777460975055,-0.027866795627295236,-0.25060102788139055,-0.25489536744368402,0.18596908639908885,-0.11635931868101879,0.023727761252858286,0.023426849637646685,-0.24094188807374864,-0.14286554158510872,0.043456990988458448,-0.27130544641435245,-0.033940575306164109,-0.27125034350833499,-0.13112437383232881,-0.029381816948602649,-0.042609482288748599,-0.20889585940586758,-0.29102757990086842,0.013939432619026283,-0.18782636812424677,0.097611213142588443,-0.19997855643173276,-0.13332391203548274,-0.18451276936328803,-0.093033840527676923,0.15995758482135142,0.16606802232793522,-0.0052287304596331701,0.0040907466490511489,-0.22025904267384971,0.16329497518038621,0.018744262310300113,-0.22200804930176923,0.0024926328190789061,0.011065078370999555,-0.13103287763322097,0.1292629510724477,-0.28319466067013438,-0.17203697509142465,-0.23338386452584831,-0.26735323839116709,-0.31331410347162653,-0.016975517250917008,-0.23703416698227303,-0.18108685142767156,-0.015627774525972353,-0.0013395307334381882,0.072035258457315912,-0.0080797538450074358,-0.27996102633307879,0.04807037294498117,0.13359707910199448,0.18957318347475424,-0.19199249570861132,0.028527033957677736,-0.0086923652663589562,0.20214497926920744,-0.065775636566130238,-0.08109890907057192,-0.21823447503361512,0.080766888477954588,0.082836124830439811,-0.0053981047944714712,-0.24887996307637791,0.17275574573115621,0.17151131745313558,-0.21883016293875876,-0.31238289620358423,0.0013385384936995949,0.19721196075511604,0.090131201345916998,-0.21450001798584745,-0.1174234833085894,-0.29959027293267526,0.094900360923731594,0.16884003516178539,0.048855104910460433,0.21337973764922305,0.0026601674501574323,-0.095308732984087166,-0.018601018946208501,0.050376239641758365,-0.11955204640377726,-0.10217214501387172,-0.28605317270910552,-0.29394192040155537,-0.19243954402735669,0.059431017935230507,-0.097075165965675628,-0.20719757572919897,-0.099651590818295166,0.18498298641454072,-0.19421971148120989,-0.17471314452353665,0.12460592625672515,-0.13353719298093303,-0.24309672280678121,0.154341438528456,-0.040122030072080136,0.07092844910200824,0.08103179431596004,-0.1638329136022228,0.20048690982181697,0.1687438858502221,0.11909210003947455,-0.022516151331302886,0.1722601186591112,0.031965354248299167,0.075628456755017212,-0.007136144280040408,-0.2660207005120544,0.13944763642551275,0.011490733980428498,-0.20777902006046034,-0.10396274247875624,0.064832550829008642,-0.21973605095310031,-0.15526905785441356,-0.0012618336082836231,0.11548639860304154,-0.13724567693454048,-0.24653235846760416,-0.29987943033973113,-0.00076825182362836968,0.15295143340754508,0.0058155794681561991,-0.029302317965985564,-0.28685710342597337,0.1458914899173703,-0.22164556352365777,-0.22732135171484957,0.18036069015261191,0.014924674154800241,0.13745952552704968,0.091834200670038224,-0.054598552527389689,-0.089910577313011178,-0.1358157722884131,-0.096921150601189915,-0.027349338166228532,0.029486917643164304,-0.17760349951465709,0.047788593988949406,-0.10007293370515782,-0.28952349890105972,0.19090768466697944,-0.07923196998149265,-0.3126705339723716,0.085726790526910943,0.21269917435276203,-0.13474021856016746,-0.22722359982282772,-0.16026711513268962,0.042682268054534608,-0.29618125255701833,-0.24686491297156576,0.10809700852869251,-0.077723263442859417,-0.27175722463670726,-0.31091738784240652,0.045122841548062453,-0.16295332318464611,-0.11787488263129735,0.11643330171785989,-0.12280349086092066,0.17901437346343749,0.11276011643478263,-0.2749291606063155,0.12973787525708971,-0.11144881240300931,0.16962151442205103,0.033358678077946034,0.20915403176142341,0.0040352682157777098,-0.035756658941145096,0.0093618838887064449,-0.15233313676702848,0.12644531993901767,0.11018658112613805,-0.26019605363726472,-0.00028446086617203047,0.072172996610364859,0.21196930386955135,0.12207912391055352,0.11074521615776931,-0.11209775185678293,0.19575659801465078,0.200157763685717,-0.21237932153590564,0.19341479710094028,0.086056566822925826,-0.2717678471844705,0.095930326680214187,-0.28707535037998461,0.1041529511540031,-0.1165967118915664,0.22472813572504305,0.14915826598080575,0.1619296322217165,0.061931031489611953,-0.21386814132712675,-0.0038804383359446644,-0.26827011961574698,-0.24661886223692958,0.096573187765526813,-0.108266134586867,0.089365193136869872,0.14974119262797725,-0.26316203152430545,-0.0078778035365660928,-0.0082317380508004148,-0.30731497158751603,-0.25704827412067255,-0.043654245608764193,0.13967412298595414,-0.099181770321300516,0.15908116169636025,-0.0081431660939136705,0.090847369003322673,-0.30571022318619834,-0.0047912122932093574,0.1759961298752746,-0.28874794281966354,0.18315481859515889,-0.046658336786789809,-0.014714394780660325,0.011251126510569547,-0.18225510912976062,0.13812308574285267,-0.22486227254042529,-0.14212384571596839,0.15027546365893699,0.057616106255288922,0.077551203885257963,-0.060933743608369464,-0.24833083479725895,-0.14606194469237502,-0.07146157025635845,-0.19098099379672068,-0.040249691004282995,-0.064824714934634015,0.17741041126999438,0.013459715862807102,-0.010957219192887654,0.1219510928291845,0.0021960732626671599,0.038590145992261043,0.062674720606259088,0.099463374103765795,0.087843167758254972,-0.15791070114974673,0.14921475664806402,0.14783013826348407,-0.23637376853387249,-0.20779128603436911,0.19267815963156915,0.17339447883901266,-0.069097594515301092,-0.17244350116147444,0.14781250076170177,-0.2502405742942887,-0.16176429197426534,0.012724852766312323,0.20732981717740839,0.13864333205935087,0.075869455292972898,0.054646901431417517,-0.10421459431951918,-0.17221814536085092,-0.29132603707802213,-0.13415817341932124,-0.17919659745323849,-0.24520949513398835,-0.24236367309322046,0.096240454680633233,-0.22359934487163649,-0.090809611025545425,0.2270984757767685,0.21261939943404828,0.17294595620376946,0.086267225343226006,-0.05073276228888457,0.096896883171172177,-0.22028202146673093,-0.16516894614060754,-0.17197552756950546,-0.1026970403427077,0.021223289392335375,-0.16648337341898242,-0.0174495592452663,-0.2937987970430575,-0.1457496005019859,0.11324767673808545,0.044151369539679325,0.086512595114416113,0.07530076013067552,0.19534474523879525,-0.29714310814037376,0.12050022934582719,-0.007630312631540152,-0.28690110328132973,-0.10843264611581763,0.16895896852988374,0.15560014274124437,-0.12233580975620807,-0.21492562782462427,-0.27644838802925498,-0.030951462299927134,-0.02127065377177265,-0.077037658067709555,0.00039984151091507268,-0.043588466809000546,0.14806709066412521,0.078219604794986033,-0.17095983904666809,-0.16948594830288033,0.052608665119255764,0.064893390935221174,0.11678506897142331,-0.17010593058276974,0.10233823231875909,0.056792403841689827,0.17079594895813319,-0.27151049773290564,-0.075810396959389195,0.11606906243678949,-0.2304806140752334,0.14470018198947468,-0.19524091768321666,-0.18860230730083868,-0.10008743912385137,0.031158885489315023,0.091297378806366708,0.0014193966494963634,0.026723569920318806,0.014059314055773327,-0.075883601547292082,-0.11102771812306149,0.1130346300895093,0.041588177057724628,-0.12087603022952539,0.14780482962903047,0.039473952406019953,0.20209381701486576,0.11096984836463426,-0.1446729102013907,-0.21712701459421369,-0.096495320365786411,0.11391200028216789,0.16028535005754427,0.10106416001243676,-0.035152328727952972,0.21065290143084348,-0.086156959875720515,-0.16910288937319587,-0.30509579449155322,0.20995502806096444,-0.12515746893630839,-0.019214120037143078,-0.18036549659638554,-0.03949439007126216,-0.28830595155138056,0.023696508953142875,0.13111663415734365,-0.30651035284751227,0.077966113714575791,-0.064314850711421775,-0.12340136870686119,-0.12195654019695963,0.17576019157400596,-0.069838952230504139,-0.23832105547877236,0.051674552556100546,-0.2461183159627697,0.0042356722877908964,-0.26955731500360341,0.080492796242019105,-0.17479633171909348,0.13251303756376712,-0.13517151356160156,0.0082309719215518176,0.036257886748680725,-0.23462460732884621,-0.21436842281741439,0.036923308111623039,0.070822664421354958,0.033260041057290253,-0.27569896024409002,-0.29126276145131486,0.22692829098564626,-0.22492272075298331,-0.15857696616104214,-0.014602048021748401,0.083752896901721136,0.18028233307351851,0.092975755290274228,0.13633679079434494,0.003226707836689996,-0.0042685796333277078,-0.15592070190549218,0.010611041382176676,-0.28549211215244158,-0.038937319465031872,-0.30464226309513681,-0.3109289146256663,0.0093028006202900259,0.1115929791809924,0.16941996391951436,-0.091557174428630969,-0.21500939434898986,0.1102707934172788,-0.066019042650120041,-0.056833458952457859,0.10029297989830238,-0.04518825763748769,0.02285266848060916,0.022956711687536629,-0.092824015010991578,0.13970627971770735,-0.091089779437756327,0.15217539022205923,0.022359502932190495,0.14231935117152128,0.020706696623833613,0.0055082526120340649,-0.24746492770196993,0.065239282292068893,0.11111039050692792,-0.27786739884969081,0.012260873782408506,-0.13995375376216271,0.021600034639772354,0.16774168353290811,-0.17841670910458002,-0.17896715257472956,0.18899084252128992,0.010747819124328414,0.19940834684273787,-0.0043537447458715812,-0.14121317842767811,-0.26389607580514851,0.16389268285279809,-0.28071460904331064,-0.12272231115539037,-0.31160046322920409,0.010732136421272959,-0.21969342129206462,-0.11621875816955038,0.19273341348095904,0.1721277303521751,0.039095149442571246,-0.2207948601250074,-0.16875479075607461,-0.33152272812163491,-0.2565206311932734,0.10515321573814899,-0.21117093956966632,-0.063995471883697641,-0.20068337462421026,-0.015555943170145494,-0.097901651481918345,-0.15113904185544647,-0.027318546327187991,0.16137853836265179,0.21429011482593557,-0.088341484851152979,-0.22336588806524152,-0.01982395789307935,-0.10627389518929488,0.19902403235040442,-0.092161822819089745,-0.27317245519164834,-0.00024715131032129907,0.16200192619106882,-0.22053117537781322,0.053956876890947386,0.0076417207090973237,-0.065755558356099461,0.08722308308615738,-0.16248327324291631,-0.20389582605119749,-0.10861309198520848,-0.079983246377465428,-0.17537150316020506,-0.27957590772121682,-0.18096626474940933,0.094103209602520971,-0.18894237177929962,-0.048322646819930877,0.048791992490197354,-0.091012878237487632,-0.023097369927699632,-0.074512034988935535,0.10958447406968319,-0.2895379366987475,-0.23104299149080257,0.2166283085150939,-0.31022203798747572,-0.14128971134401583,0.0037602324903781262,-0.23689865221079601,-0.091088307985637204,0.1127269793462097,-0.069309113986280563,0.080882886182097102,-0.12929558813236389,0.062065123301424246,0.042743949081886064,-0.30524281604016307,-0.20205660412459897,-0.11509022727475579,0.16420917618252637,-0.23261955966219564,0.085500051267906746,-0.1945843704701285,-0.089012293822904265,0.1980603319242013,-0.16836000181796365,-0.24565930125468816,-0.057286168068884265,-0.16978374974564786,0.16997307675186635,-0.18372314610177637,0.0404164759038338,-0.22218815171379383,-0.022734375016112609,-0.2971500777578347,0.096282897593599273,0.13746607512008879,-0.15300637584443894,0.02568188509967308,-0.26571658410120014,0.026928876513399279,-0.19274465423525264,0.066034903226039138,-0.099148031982647378,0.03850327919649299,-0.27275167394899075,0.060007906997562886,0.14426643721952001,0.18220102920512618,0.12002831337973888,-0.13034107381796867,-0.10650914582755261,-0.25772750467229699,0.18596808104438242,-0.2666440534041602,-0.060155539228531181,0.024444758648204026,-0.24953207574541345,-0.15771916968238381,0.1029251039904545,0.10941061031650795,-0.10897373490966163,-0.091303134659266635,-0.10100630836029843,0.0042605364297603572,0.046540569287468928,0.095372307595107841,0.021628178212322186,-0.088815319870774498,-0.12797858114497068,0.16916261393443219,0.19860650910205002,-0.28300394244458837,-0.25953709971456002,-0.055480564928159837,0.17841088670598099,0.12098637091691143,0.0038065175656778589,0.20824973501042993,-0.016702000670400816,-0.31381195187564159,0.068220156493073322,-0.013652807355109594,-0.02993374271133898,-0.21741210740418071,-0.28893864545649023,0.17214144643046725,-0.28855785304428855,-0.18378195958660851,0.080360631775316882,-0.16166819574497465,-0.23734820399061377,-0.27817431179766966,-0.038053185525686838,0.008186783546440481,-0.016750890358338214,-0.22991384887006006,-0.12664745140456293,-0.1859370313165303,-0.23195202716781829,-0.29815288604642676,0.087225816364236444,0.18979772351101476,-0.19116683817843197,0.10151009992299978,-0.30727189181346876,-0.18696913348935223,0.049556767461039264,-0.033611229841304505,-0.29483202763359395,-0.16401298683876772,-0.21324038204506818,-0.069097077417870786,-0.2519482889907676,-0.30439055210198113,0.06445716435668028,0.10140890045537754,0.22207448616071798,-0.22745469527581944,-0.28720365710170376,0.06874973224409385,0.19606912739474142,-0.024564963042157485,-0.099871823368409149,0.10574628395619838,-0.091134409686365547,0.11581015959157689,0.17013929026441837,-0.26342474930911075,-0.072317065511000367,-0.062039049531519723,-0.14296722063895706,-0.089410032844573689,0.17131669349582407,-0.22533667075861585,0.094560318993642381,-0.16433598352519835,0.029247739713567065,0.014924817563468968,0.18400342089102614,-0.11742084392827411,0.20840224820752737,-0.28058900812901033,-0.13637733882925407,-0.084467131234494688,-0.15244336200267544,0.072656219665167027,0.0076410984450138025,-0.14563405747591077,-0.29829532354377336,-0.24703709011083697,-0.22985377176201499,0.15622647501279696,-0.070329250074060976,0.12589867153959874,-0.29131438339918875,0.1310933620446357,-0.046038452087047405,0.15075108689429598,-0.074651587064304234,-0.12992297032503275,-0.23129664361834462,0.18821222910693716,0.016008550493538311,-0.21101911957297809,0.09974209457053107,0.091421193602619771,-0.26937590105897918,-0.097680679261548276,-0.0048482580715301614,0.12080891362929962,0.02253352555634176,-0.09581844443743201,0.20159868511257495,0.11610903321613911,0.013018315575991762,0.11200570570009949,-0.21480815653183011,-0.028127075550317657,-0.22510634289603867,0.056660193960897304,-0.059876906815029253,0.18656261460344414,0.0058653409339859209,-0.24241104138865241,-0.24947783620493066,-0.24527698962932198,0.19581048541720525,0.065725825328306273,0.0075284106997263334,-0.15419206062808924,0.083324086106384684,0.22068295021353898,0.20103078511230005,-0.2620036147859931,-0.11308591932166333,0.056172338141091627,-0.22302639081805037,-0.23374902468516923,0.091537660732864762,0.04941572990688347,-0.076803404454957397,-0.17126955368305471,-0.19712838657254533,-0.097443139375332943,-0.30581281121320375,-0.20886317883317002,-0.1106866453248246,-0.12780443490751286,-0.1925174457786,-0.27303695041696624,-0.1542559651038716,-0.0264724509842169,0.1207788674604669,0.22709152939986257,0.12528042383606799,-0.068871844542199898,-0.29564944274995392,-0.089678520992483551,-0.10917776575964976,0.16931038428843662,0.045473135668982465,-0.20777074644087715,0.046346477899685913,-0.24910888917176874,0.22166474936376845,0.12549297686699259,-0.21311490623229434,-0.010571341286752554,-0.17212214435532813,-0.026439463064128678,0.14241704387837459,0.12417935140313931,-0.025295757672853393,-0.10592466788565609,-0.21473660300765021,0.029069255845239898,0.058567848399635407,0.00046690697172087667,-0.25301340245178794,-0.13130462272662383,-0.2768460423247846,-0.079431415025787558,-0.098999318183790416,-0.069071099652436227,0.073805480406930829,-0.056311792474826615,0.081974322697401236,0.042476955224318484,-0.20232163241973666,0.14455020749431546,-0.10444439173608523,-0.31796477440259668,-0.27467066416432839,-0.037881389201300159,-0.058568952906876116,-0.23586404767906508,0.059478210048828632,-0.20534222990089179,-0.18398783446366412,0.017639412535854652,-0.1330075790130813,0.10438479432436262,-0.075085374620773818,-0.12396401623653112,-0.046239950335159687,-0.019286092803952579,0.01040410523910607,-0.021948773684679339,0.0025997539444682391,-0.20681626047528848,0.2100549230462759,-0.21089234711665458,0.059205068169727329,-0.14436483516857404,-0.2823583654864692,-0.11725142250679417,0.049223543524417136,-0.18554342108860344,0.11053503824153538,-0.1505863946130182,-0.21075195839317906,0.13456802495246561,0.16478336678504729,0.033795749261166311,-0.10509852793149105,0.13411776791121888,0.13300166290707263,-0.14130347015055866,0.053743137445878317,-0.2152651669069737,-0.27465382182602888,0.21525216819653936,-0.077737949513465313,-0.076500803959255056,-0.20213388997931972,-0.23596924307410111,-0.1646073458977001,-0.15089628781050674,0.1974033863226414,0.03924111451985169,0.19096966524182615,-0.055354031088367527,-0.13345419611459969,-0.099897180088891091,0.038173844332243544,-0.013255816062521903,-0.14545513073433108,-0.0069597116058040271,0.1981840855242159,0.19403120737507434,-0.23074186618666551,-0.28245341796553963,0.014339859681776675,-0.027704672172881674,0.11199946190836527,0.057416733850965615,0.16361202157195462,-0.092634148730523697,-0.02526033725398296,-0.24241534439474288,-0.021683837845573137,0.15754199430950355,-0.11874697482807949,0.10851183311475321,-0.038799682654499741,0.20088347462006523,0.10002532273813332,-0.042177941251097827,0.023558365471814065,-0.27358848040079481,0.026851965614120066,0.053497878052234764,0.10078827996210418,-0.19600684364885726,0.14917681297282195,-0.034497836358331778,0.10836805700703435,-0.031959450420117365,0.17405586421011165,-0.10595702947438784,-0.27375665706274943,-0.11273985065373832,-0.12583466999568499,0.17748879909110585,-0.090602011179732309,-0.0094942981203498169,-0.089613043515876026,-0.11406621411330239,-0.081343280057418602,0.13853950374558865,-0.27152495842540236,-0.16793033274758615,0.19527717060896538,0.1241569371641823,-0.30292862345326477,-0.17055138426032226,0.16674339126293458,-0.010085446911107522,-0.11594112692252102,0.14250317797183557,-0.11363813059625677,-0.17565771188197876,0.15448470670132863,-0.19327479656666491,-0.19258460851489886,0.089764611485412218,0.13707116174749756,0.025580098402184757,-0.014965841194286851,-0.12510468050917467,0.015779765419423726,-0.058561742145778493,-0.23903366596614753,-0.050784669146761788,0.11585216090048965,0.144315985061892,0.047342830632578776,-0.061933830843232181,0.17473082542114399,-0.20957074190150704,0.14443508208972974,0.20817183649829493,-0.19442977503529926,-0.14273564923959167,0.057614638020428807,-0.30771218312761056,0.019579015030735756,-0.28587888542902345,0.018034200479997681,-0.22563879977336185,-0.10186892796183611,0.060867049097082619,0.13665110212806392,-0.083457099923101991,0.10650265219984402,-0.2983422696143973,-0.17935779469345364,-0.12530787842947824,-0.0045190368932582796,0.095021635588179387,0.18485397334271234,0.15072195421307621,0.13675037884187455,-0.26337120022567923,-0.18307199091631918,0.1701079203759662,0.10711570178310247,-0.31025312822100665,0.070006037959930129,0.093723330229274579,-0.20764804930764977,-0.31286870103627301,-0.12082974142055229,0.17555923445088553,0.17407834105343623,0.22508972694284693,-0.20699786149838212,0.020988382642323385,0.1539657238942824,-0.059666244392519316,-0.24867528302469388,-0.077333550483343977,-0.19903643171694874,-0.3133705753126107,-0.27005407499731099,0.095669708339596468,0.11302902912251817,0.18013167072828293,-0.21090929655253055,-0.18733662920252095,0.047170713311900363,0.13305923266894057,0.20686538263520596,-0.10256749847749726,-0.26948370993375997,-0.11584355609129826,-0.18554289921802758,-0.23190547329792513,0.15029677885869089,-0.058935131342150192,-0.13167934277658661,-0.20108555735563283,-0.00036668238232398417,-0.27135249405813494,-0.11721357845673151,-0.23915750663006502,-0.11845227507774223,-0.051472423641173777,-0.053813044567918425,-0.17659251076204444,0.18017397973506008,-0.18530518066788376,-0.24181427492939078,-0.24186295422531992,0.17243549538206229,0.010002198107989319,-0.070666526885963518,0.039457650561684599,-0.22791041140024282,0.073256338797430862,0.21947105474470616,-0.080430167619616993,-0.036108690219735923,0.081032443215376115,-0.1524604943829013,-0.18219348369827018,0.080873884314560537,-0.089046875641525663,-0.16564058998207423,0.069645359437716658,-0.28777146696920552,-0.19040011694647965,-0.0051851838725819575,0.21412240418715492,-0.054840810809772954,-0.22033026894019245,-0.0011481248952687785,-0.032756952156839304,-0.096739293695366685,-0.2887751053604618,0.082873455311414879,-0.073196388387926858,-0.14070420128559724,-0.11376555476757999,-0.2862444540843076,-0.27191885841280483,-0.22710471088888873,-0.24471806706751728,-0.29126102368620593,0.07293743017384921,0.17028717417330891,-0.12580331726743896,-0.19576789915462298,-0.036511536949849974,0.019594140870732538,-0.014325398931835305,0.20506784874705414,0.18589757620007688,0.017153656519080553,-0.18196565000428344,0.084320423330276742,-0.055054330354467447,-0.14790339540333927,0.19992404868710184,0.1459284628977745,-0.1872092209911447,-0.17390266039854074,0.14589153294431659,0.076298035960726845,-0.11297344773368789,0.15234248641373371,0.13241055790060366,0.132300346666226,0.014586367735549834,-0.17931543609780204,-0.048098391335587562,0.060216386839785786,-0.21253525619768068,-0.21110342569209678,-0.29348595076689793,-0.16463838180949905,0.16269666583908632,0.16738064980258002,-0.19167903822434995,0.04531933836847403,0.12039107249192602,0.10182369228171273,-0.091946954696331226,-0.008989405091895256,0.17607237505304862,-0.17279303991357911,0.20212575569388588,0.0098588827595968154,0.096876365755619559,-0.099217366260812762,0.12384596144332984,-0.11219955298865632,0.11650181058005508,-0.16499233638245261,0.11819275814360074,-0.18076952245829522,-0.10349585541822111,-0.15338234736282663,0.039034623928838309,-0.179970459396986,-0.027261594214956195,-0.20233174999749587,-0.19804937709903367,0.17378889066251177,0.10825551417696126,0.040890631018215232,0.013709060820192617,-0.0043028176198378794,-0.098310539296921892,0.074633543689125517,-0.26217259202254994,-0.29080984184365599,0.18836772025543588,-0.099185698929032923,0.0088911655943573059,-0.21240068864181405,0.074385903968656159,0.19507824043252286,-0.036075501776017843,-0.20623831680507607,-0.072145857224983512,0.055945912657275949,0.12656954358392453,0.031284477956516135,-0.3101691671055456,0.075023486057528302,-0.14375215238321093,-0.10018389343826285,-0.14246502420804694,-0.21079178721121652,0.19602495151419388,-0.21960412403962332,-0.015170409786829498,0.031392782082209324,-0.16007697233573853,-0.27509013797700888,0.028458251466020417,-0.082066874783414664,-0.15314601238422623,0.073885794420368273,-0.21722938688672067,-0.087330971725695219,0.15586553775526349,0.040042457927434744,-0.091072103295531753,-0.12577578178831128,-0.23081451000640832,-0.33424058072530555,-0.22644640750522971,-0.17895044606007468,-0.1132162330089086,0.0086125189414304523,0.14947771510819546,0.030056176953928964,0.082454744038133146,0.19444401484508667,-0.18069404781144713,0.21090792036743222,-0.084307009466379562,0.080499233775550447,0.13339547636401181,0.16974591155738813,0.19257429854347413,-0.028198551440575193,-0.12369963335153396,-0.076748809160217354,-0.24049523674784781,